{"input_dim": 12, "latent_dim": 3, "enc_weights": [[[0.22302966858282566, -0.08737270138064215, 0.264539639145134, 0.7411059184991269, -0.08623712924058814, -0.14329501464710748, 0.7114945683548048, 0.331835134651009, -0.18858572851744843, 0.20729185931125504, -0.16809759370584773, -0.20098999760626965, 0.035311995043181055, -0.7814505109979568, -0.7163851682036112, -0.21816776579108804, -0.41136635999370363, 0.10527429427100018, -0.4826182917438974, -0.5798092409022645, 0.6549392652803344, -0.09675400582014429, -0.04414854863515784, -0.6194462284389709, -0.22220995379449385, 0.0905289124459113, -0.4438016090019903, 0.1351635255448413, -0.23949895023071777, -0.1167171120954322, -0.1534728003491888, 0.6691828121192439, -0.012689277643464286, -0.4321748425909787, 0.2834873075298906, -0.49696392954283686, 0.08818051904310792, -0.7592689138612605, -0.6000416961830972, 0.16123150010239, 0.3526133376324675, 0.03589422545358992, -0.09709973462246893, -0.13929011378284487, -0.602422728441085, -0.29334924542872015, -0.1311353344113038, 0.4356042665459039, 0.24653607924353566, -0.6514730620570554, 0.14779769970948017, -0.09909967154360073, -0.36605936298209896, 0.4094421339601403, 0.37116849803500407, 0.43190917785292704, -0.34011985059634836, -0.1532252565201443, 0.16211611565752213, 0.40048751167106295, -0.1896366396140852, -0.07172597397272935, -0.4509314371633021, -0.48711137557232354], [0.2857269607783874, 0.5330817120689507, -0.028210626044069344, 0.4455910063691831, 0.14967563532616648, -0.27573151421753667, 0.18649475417382713, 0.6053321442989937, -0.012328943945641888, 0.6128887739281442, -1.0219104358240612, 0.21880844751749748, -0.006976483737983519, -0.12763699138614246, 0.04281579962274908, -0.8123485613294422, -0.08862838538526438, 0.06866995157744084, 0.5312310210086322, -0.20596408160743468, -0.2971579653701795, -0.21435853335475935, 0.34391412249137954, 0.06279162434759587, -0.2160296378656937, 0.22596271388137087, 0.06146229530193677, 0.399893775306371, -0.30121830705228525, -0.1181410885322427, -0.17192849157788276, -0.6063548688559615, 0.1367558430357414, 0.1710357210586662, -0.0017584930502559804, -0.0954564174873654, -0.5402330905392161, -0.1189548940252501, -0.07438354628856941, -0.26950648447603914, -0.013420615586778848, 0.17361963984709003, 0.7905673518770556, 0.09916515801159535, 0.0809342196197138, -0.03543958430772184, -0.7904919033803512, -0.01829181960067137, 0.07927544484249309, 0.946655511147916, -0.05755466859182136, 0.1250254207570679, -0.004747455510548687, -0.3986971922507588, 0.43777982699411333, 0.33379253869302056, 0.2916346854904991, -0.3275572919760152, 0.6841557839161277, -0.561339966310319, 0.2440733851941619, 0.8725277195405512, -0.40438428368041873, -0.23001303112072177], [0.041419119936816684, -0.20775227023799858, -0.6315194399220418, -0.0197253148741723, -0.4133862435060194, 0.17030652560269813, -0.3349854993572937, 0.6318447152009924, -0.324985963703559, -0.11543386997471816, 0.3132616170843704, -0.4742400879495193, 0.07841192530896751, 0.5161207158838367, -0.6136600486785274, 0.07155070188690062, 0.07808056933744449, 0.31184259886454535, -0.4737127392166681, -0.5410389920640604, 0.1904671592194448, 0.11037707205544864, 0.08585447835813653, 0.11703755496846521, -0.2770274226275117, 0.08862632132380747, 0.09986171603023085, -0.30248144017248235, 0.7333106775321997, 0.19462896896437631, -0.4174220907926243, 0.2759536424830509, -0.3751731119874142, 0.3508557493460175, 0.474432079336025, -0.3342700612574758, 0.3972612985923838, 0.15515987497637432, 0.36521344131368416, 0.6942153288721258, -0.09721104968803344, -0.23624147622021416, -0.33306173697320257, -0.2778580149075968, -0.04199080513835087, 0.1362426779124674, 0.10086420437348782, 0.3443206871850735, 0.039021902533098785, 0.5546450955951528, -0.11370237139146652, 1.10487507974766, 0.28147962206559146, -0.3068137569511581, -0.42184344206501806, 0.1860276648925457, -0.08166394468627812, 0.29395298209435783, 0.23349687045288245, -0.032419422368091005, -0.3185693451319878, -0.6093874026174652, -0.18213144871103196, 0.34933885352274086], [0.06779899143023232, -0.5349078196989455, 0.07105822423993381, 0.1332845737014439, -0.358198040138084, 0.012682379339590245, 0.00224625499002085, -0.42482137388405733, 0.15364128033401564, 0.31384775591351916, 0.4702696790382928, 0.5145449418104494, -0.548798862580472, -0.37931318428285726, 0.2440631477551755, 0.1954076067327222, 0.18461816980888146, 1.5915836111250479, 0.2400139724414463, 0.42487592856610723, 0.41237087074660955, 0.23635761340523362, -0.1339243175007678, 0.36192077376097426, -0.3149993433529679, -0.04751820945901347, -0.13757954012955798, 0.07018261949519067, 0.9265400036140115, -0.7595739766718891, 0.320703456185562, -0.6518720032795252, -0.21554455920802099, 0.4309717485878955, -0.01048553167315575, -0.43879460823962707, -0.26976963495520434, 0.3133980454356761, -0.3138957212703894, 0.0757477750958254, -0.006530285486483375, -0.23354931872078794, 0.8789258342164519, 0.2632774008606966, -0.8237212195889272, 0.07013419501329568, -0.27065221766920783, 0.4212832378372515, -0.254250693270326, -0.017074329835497823, 0.1761997542693218, 0.3651793175587587, -0.5362598565965474, 0.0018034945066745171, -0.2443054196627335, -0.32187785432947585, 0.7691342782362675, 0.14424112960886454, -0.49207857473735284, 0.37720514528784016, 0.8767736429972681, 0.43670816670601287, -0.6187962535724866, -0.19698187740741402], [0.5921630817993567, -0.3252860988355173, 0.18333997052046935, 0.3638088497574548, -0.3757396719381103, -0.010380380841920675, -1.3226145007238188, -0.4134746177680606, -0.11045901060974206, -0.5952531185731973, 0.6970363339809522, -0.5987171755563714, -0.18244422635380098, 0.07345965426052675, 0.6743931821559417, -0.5791117752017394, 0.6265042889315398, -0.10744416049745596, -0.4609280827878493, 0.2564734498481838, 0.13960111725109978, -0.24852661092608905, 0.049378428023476854, -0.16691374320249228, 0.045022093392275975, 0.35156252483841, 0.7438269532315949, -0.5332841707044631, 0.9387340544602001, -0.7954021318779835, -0.07021112065229292, 0.17043846760260656, 0.1889317054195592, -0.23773297758298573, -0.14297102568745193, -0.20072815527461335, -0.18935330823485125, 0.4689513755688953, 0.14498913687431, -0.2582643817218684, 0.4104851109137667, 0.24392713925394535, 0.30519686090454823, 0.29638630001086796, -0.348823134012574, -0.22832050198159626, 0.3024977878622832, 0.2553415370220107, 0.01653163283801614, 0.0638884054867434, 0.5818069683290454, -0.23188716383052652, 0.17836396268074242, -0.060907971738384616, -0.11100406292902727, 0.42087567007267873, 0.30273340932247744, 0.38077484461825667, 0.6684581653400848, 0.035055191442693694, 0.32007740061444734, -0.1054337671282889, 0.12872909637796504, -0.05218689906591572], [0.023802265276690677, 0.22786212077325474, -0.33336674162635677, 0.7986861392126698, -0.4151263567131632, -0.49297951766854325, 0.4748132831318084, 0.3185651217505737, 0.2503459030092318, 0.3659326602897095, -0.06877823297780948, -0.21317416510348136, 0.03151944257327675, -0.27802410265027616, 0.3955347477857355, -0.07063475144402584, -0.34214818532762137, -0.11824853966371746, 0.1531557837971334, -0.24505119195658207, -0.2548163368197848, 0.07722102456268103, 0.12621062876773315, -0.20615401038619552, -0.19181765799371653, 0.03652649679455502, -0.6391924926705709, -0.5901755093183652, -0.33825820951468827, -0.07167361014265299, 0.28673477496796945, 0.6161903551405276, 0.4283614957892112, -0.04365378799868375, 0.009063868481732249, -0.4088537427462963, 0.003474708705250046, -0.16524642028988357, 0.0925836341847218, -0.2574352568001089, 0.1704845001320251, 0.6176804394061509, -0.04317245339979642, 0.22447302173460915, 0.2669677610966256, -0.16379417385896614, 0.07819278922778818, 0.07734764185390255, 0.0846764003566912, -0.2917796338595217, -0.021831000810519016, 0.15827073249898574, 0.5881713207850469, 0.40837269059247433, 0.8501950372912362, -0.42792860633450786, 0.32838128883682344, 0.04066938350123231, 0.8540089632089072, -0.33988780904293353, -0.3301148005093326, -0.2016647498948464, -0.8651493309560171, -0.21401911744859958], [-0.27651502916184056, 0.013813659572113736, 0.14136153878369256, 0.8048258910352779, 0.4526316263665389, -0.22716460147697182, -0.3275028438196992, 0.22807694772969075, -0.5380079014634755, 0.7261153069626655, 0.4612128821444309, -0.3444927891163277, -0.70004663118526, 0.5257135786544236, -0.0095811004289223, 0.48371870894163416, -0.6417898987011095, -0.27363839253712957, -0.017347421533369826, 0.01237301410094479, -0.166891780531063, 0.23583107351380783, -0.4376994494001726, 0.018596144888233145, 0.04961143788190657, 0.2545672841694896, 0.3349432780979299, -0.4540680357496458, -0.676319972085801, 0.5181627138758261, 0.09858229507075196, -0.3287791903210819, 0.6635487771912159, 0.1084196938853217, 0.4513662375261678, 0.027245268240952924, 0.9052204398827697, 0.6215157923469558, -0.1998889771131845, 0.43101320353890654, 0.2571116440747994, 0.6009507120218223, -0.41619273158285264, 0.3556212825824308, 0.40400471196036053, -0.7169446224508043, -0.4929462725117283, -0.7936205352990274, -0.09396498798554558, 0.3567703698871398, 0.6333413348803618, 0.03420445234016322, 0.6744381223122274, -0.5278051767974538, -0.7240907508246226, -0.04677120171248958, 0.13018436205232242, -0.02693246240037341, -0.8160607206711568, -0.0347272233243829, -0.5297733285384026, 0.29138847385051164, 0.1470879103829126, -0.38280069405310135], [-0.21008470398470125, -0.422518303541521, -0.02570690060610819, 0.3469218159647708, -0.400375259322603, 0.18629268025808712, -0.20588985899742107, -0.32361590760193215, -0.0483427602843032, -0.4275758771465833, -0.18651535418645032, -0.4628343578410959, 0.8288254930252548, 0.009882485423081724, -0.2811469474825796, 0.08081154587183931, -0.05791342731533528, -0.06104560677935183, 0.2960442068805825, 0.26282083416782304, -0.20416167784168307, -0.2347201477908733, -0.09156086637347574, -0.9374729323479617, -0.6171930050713668, 0.5357416560933617, 0.6174871904667907, -0.10094994318958235, 0.2325155007395919, 0.12962360849089277, 1.2736298359110452, 0.48104034407105634, -0.0627884988428014, -0.36664396978918007, -0.6571228339856425, 0.08244766466431462, -0.28640990548267115, -0.5791531593999945, -0.23110414636916865, -0.42606719530211873, 0.6535626648405194, 0.3176219435549774, 0.0042893326630377504, 0.5783986758210613, 0.02391980061308238, -0.3504445759960704, 0.6044088878816107, 0.25082081174987625, -0.38167599769672245, -0.07270137862639788, -0.3363773152671779, -0.5453250794104715, 0.3686107258756887, 0.8021283271747259, -0.5681030939960973, 0.2262468305519489, -0.2699306026361861, -0.1926038539603344, -0.20414542662091198, -0.35784883686173885, 0.04383989755499294, -0.31769610974256435, 0.11022513870656853, -0.020534080874365552], [-0.09614500123460727, -0.32285115758085303, -0.2338759370020897, 0.3080883432712197, 0.1779657608801501, -0.4074683302229797, 0.04600333887959658, 0.3270233349869061, -0.6780432973842082, 0.22856047830833998, -0.2586747821739189, 0.18109031047618815, -0.3259891131569631, -0.7385285873181651, -0.6359404228057056, 0.021178942478590302, 0.047487475291695676, -0.3782190727638101, 0.20259293656305497, -0.6749812588338742, -0.02783668707427782, -0.495775755812606, -0.2505366133192939, -0.009222254586282157, -0.3510891988690772, -0.17002197222013388, 0.384892615941502, -0.20676463454007163, 0.3239631082239699, -0.44481904690014007, 0.1833592345017681, 0.5227284014534975, -0.9509906706307667, -0.2871395483086095, 0.2604828255487128, -0.08273023067657076, 0.16595461091157265, -0.23240027049936984, 0.09203837688052961, -0.07021629683313571, 0.4557657862275121, 0.0717978342650636, 0.18741912718582204, -0.1551830352082595, -0.20835634642567044, -0.17659693989142888, 0.17888696142756863, -0.13851257605605763, 0.15185931427520966, 0.7546982876228207, 0.3346593300189307, -0.09748396986057226, 0.45457603579044265, -0.16191039044441932, -0.8190894446302147, -0.3564997136550431, -0.7607890764919912, -0.13553805959480392, 0.09380566208626567, 0.6684594598094153, 0.10645030483005469, -0.10920551214032542, 0.3357744705316839, -0.9005024756411647], [0.10268091721526174, 0.28334747020298356, -0.6015483094758557, 0.5379378979996977, 0.16100043712315137, -0.18535697273407511, 0.28176639913848184, 0.9271152584629858, 0.07456371899547809, 0.14019408693699964, -0.1559152159019726, -0.34145554642736214, 0.29921989670193055, -0.35686046679495464, 0.054109876560273905, -0.21603521030220466, 0.15537652709084576, 0.10062506251041933, 0.37662904115748674, -0.21818183729267807, -0.09671120179253807, -0.4100934845968012, -0.19575044084693458, 0.17916550861572417, 0.3071951563529358, -0.3090235321099407, 0.33452593875097225, 0.5471479429479709, 0.1402126679495539, 0.7593467788322865, -0.2608929044728559, -0.5146290894014112, -0.7167687679140122, 0.616443939646111, 0.24428148529870633, -0.02284396203849786, 0.15237480891855523, -0.455822357450548, 0.9765381339167462, 0.09854908289370265, 0.059452799900190575, 0.296149364299382, 0.20265605349500052, 0.09747573815379636, -0.31989691815644133, 0.18826082976482808, 0.7466977167663892, 0.5641754571109483, 0.6877179096749384, -0.18356884870677526, -0.36476882283479234, -0.01960609458251408, -0.00871197746806056, 0.4229104352457915, -0.6916652383441704, 0.6282096739640106, -0.07548650379557774, -0.14587166166664503, -0.34240869410499486, -0.6749742014370362, 0.3290277694803039, 0.03986092547803385, -0.5263205851681921, -0.5270738751761758], [-0.124698117265216, 0.6547407397976401, -0.1048031706995998, -0.5185882913360752, -0.08889850084335414, -0.1504108918315955, -1.0352165623558705, -0.00853729774919037, -0.09145549450990123, 0.2702329649313423, 0.7626347452090303, 0.43662852483312964, -0.15816556748239716, -0.4531715315480161, 1.036977774879964, 0.03361626662664369, 0.0015417342341560534, -0.03458885212696936, -0.01196177821879711, -0.06399580120730528, -0.1884843056075884, -0.2263375585717135, -0.06921365324840029, -0.24944877938635157, -0.2906098746620094, 0.07855928512622791, -0.08886039158624918, 0.5946919081674599, -1.0770307519609885, 0.4446439818031888, 0.5645521253116809, -0.9119667652088422, -0.1366535109289053, -0.14036644139034504, -0.6097244556032043, -0.3165951874134949, -0.4421512185474963, 0.7335115108286494, 0.33838917681892444, 0.5805668083206066, 0.3347370093828632, -0.4819611478180553, -0.24528479653940458, 0.18195832612372617, -0.498788076578977, 0.2899192440581726, -0.049683213919552036, -0.15289479188308747, 0.36320454268651203, 0.2329711304768765, -0.14046548615326557, 0.5140548273801369, -0.49052584914197667, 0.36964112010490496, 0.20227847041222985, -0.08193473277894629, 0.12496523377017962, -0.5358285461123027, 0.39190730250544153, -0.07116654587032713, -0.21526970323685282, 0.42859553544948525, -0.287133176834446, -0.5735641258417252], [-0.6283929325175315, 0.2297293217270224, -0.5204357460553476, 0.7811852815157304, -0.827171113292648, 0.6507824645614867, 0.13668128437895508, -0.022550843111780784, -0.21855928361043103, 0.17066973387535692, 0.007956249993978428, 0.4117196598881476, -0.00992139455766493, 0.05556371957917407, -0.14774951725038077, -0.024017736333860153, 0.1001138745605662, -0.7180500482162081, -0.5878101598506089, 0.2907799712910491, 0.10229599822162247, -0.08388541568195748, -0.03787208311426248, 0.11478439805060041, -0.22035095712217087, -0.2731986683581153, 0.0876233212832206, -0.40402287552440524, 0.15774186069453996, -0.6931066811502006, 0.46569580477398614, 0.1323322022651918, 0.09868992874768728, 0.4471357823453204, 0.6594820133551919, 0.4131298280885141, -0.7221400722712349, -0.500540989621939, -0.25204074060881315, 0.06348524186920743, 0.22793467754364327, -0.3036147365321578, 0.08022486502813674, -0.30385726961151854, -0.2536409660955996, -0.5742309923451636, -0.34540412424008243, -0.5465110887182613, -0.324717835146251, 0.44482196031162213, -0.3685853163861152, 1.113531742380172, 0.1829050743088108, 0.15332942679812403, -0.3826071512159004, 0.3350859433798697, -0.24151523153426466, 0.037474344700380934, 1.0878533303897793, -0.038265144025932334, 0.4664852729067732, -0.27714863302387954, -0.015105808958255472, 0.7216642770743155]], [[-0.16826473532602418, 0.35301166152009006, 0.11434385238250262, -0.0996029495502198, -0.02119693027409887, 0.15763129451512017, 0.1075591436108679, -0.21700222435754393, -0.1658848349869707, -0.05822907392937484, 0.01869124981754588, 0.20141872914381997, 0.142632516463573, -0.2261404735993852, 0.08360387323270671, 0.050195038933565424, 0.13707139573878838, 0.16246240468290712, 0.08209215183052378, 0.022730350389347245, -0.04166521405990334, -0.37082104439961094, 0.07041613848824188, 0.033325745727672315, 0.05021780875399815, -0.1404325674800426, -0.19058924974145613, 0.19747940616285828, 0.014374746798890213, 0.13073487399746683, -0.002516238291281434, 0.06041804279465676], [0.11592419220562937, -0.020149769800119413, 0.014805512499249537, -0.08378494065051476, 0.008314201439491044, 0.005395747580945997, 0.045027316796405405, -0.08401045171703517, 0.1508536506529118, -0.14603669511483477, -0.05343901502854931, -0.08864787622206151, 0.25303373897621784, -0.0016523969352588948, 0.1868673761600359, -0.22710901560890254, 0.12018835182803132, 0.14559018902432255, -0.06224176446881554, 0.20127006740848863, -0.08778431868735977, 0.2853351398957148, 0.387351685380959, -0.07157809741852278, -0.040023306569409514, 0.23314886753108174, 0.27851398039139313, -0.09970180312725212, -0.08316496381755568, -0.009280908343495254, -0.2321480024349036, -0.1504590830542795], [-0.17725679976996211, -0.13575989224017987, -0.006708103460751121, 0.04134069873954379, 0.2738037224811437, -0.17557700847625896, 0.17354555207243935, -0.03712307577203712, -0.009090271131626394, 0.11932780597991353, -0.19804263072033118, 0.06710319140612336, 0.029940899416271625, 0.08680110155584152, 0.05067337708532555, 0.4330275303651191, -0.11229397839334453, -0.09391112638731071, -0.11029178645380854, -0.09785958250473904, -0.11267648358244861, 0.20988781619411964, 0.25043294255221055, -0.10085558525493281, -0.146744823057933, 0.08285058726690178, -0.09738696286756574, 0.11160909494610259, 0.03564295665516784, -0.26707175786323895, 0.2722080195598367, 0.3162758352737058], [-0.16672680965266676, 0.027876525855875925, 0.01960648501249666, 0.05236007791112968, 0.17927931749688114, 0.3767617376510085, -0.03490887084076498, -0.0639194920258676, -0.34171322530413084, -0.19462527208467778, -0.04549358383938432, 0.3536904434491897, -0.0382478453784637, 0.02066858930142905, 0.007031383353466323, 0.20528711733729693, 0.5041951194052837, -0.08039938481721481, -0.04677495182382811, 0.20676939258806654, 0.18011013185114771, 0.2877054501261659, 0.07648035418520195, -0.042282799445016526, 0.14616081980963305, 0.19000708549690523, 0.14486868111697004, 0.07964271587520222, 0.22021142334023444, 0.2678566510896374, 0.2656434667890449, 0.1517174005530735], [-0.034670926510715884, 0.028113694677830495, 0.21151228437641328, -0.1439965480877918, 0.08192709062546505, -0.06763722029236406, 0.0012908248434042528, 0.2270360292620382, 0.02778623556103738, 0.0022103968200384793, -0.24053153321519619, 0.1317214462235183, 0.11341184443321496, 0.3813873231624076, -0.06102639975832757, 0.040817661285098096, 0.04434194716786068, 0.27787944457188113, -0.017270314420616915, 0.05442005650533856, 0.1076384289662284, 0.036835856922918665, -0.07649237374973468, 0.03157465953317722, 0.1918723952074926, -0.18372268227053926, 0.023271401831948545, -0.12135039963011875, 0.21105052490618953, -0.2641724606249947, -0.10237820413928933, 0.06772894958273067], [0.2814993425988518, -0.020527420437359473, -0.09368783006627965, 0.3317493752248309, -0.21128636294066314, -0.38795106851427347, 0.07357415786006279, -0.09593816218459732, -0.1665746865074531, 0.12788206673887204, 0.05209498650166688, -0.11186801465333379, -0.23138779046343527, 0.1518102825170804, 0.10731582564132525, 0.0034196287759223863, 0.31691554282544265, -0.18130665288857323, -0.26259161970027534, -0.11806638825042036, -0.005148131911700145, 0.06003052012645294, -0.044059427216400486, 0.061089896544666296, -0.2206073718775632, 0.23395693990586577, -0.014523078673449881, 0.21223493654619477, 0.06495768635036399, 0.05957444443904037, 0.10312393138016379, 0.07118621602602211], [0.07298124536123243, 0.28942433261696, 0.0674800981447887, 0.12234250893662214, -0.13490068753848292, 0.20258833772330914, -0.11382618555872609, 0.3008510094262094, -0.04067739471183834, -0.2658994183511018, 0.037325173135317725, -0.07501034539137558, 0.1787342110483495, -0.10593165512524856, -0.046055663482802746, -0.39080888379000717, -0.04007339326125565, -0.4139913449297526, -0.24957794833149707, 0.11172731105096612, 0.1251049950765724, 0.034474009675270596, -0.16640737566026723, 0.0102702318449858, -0.0037724633582109923, -0.11371023985866788, 0.26518941923546147, 0.15747466695552137, -0.06962412972238756, 0.0036014693082231843, 0.0536632587972218, -0.30769541315717913], [-0.05098782998490795, -0.03940795778626539, -0.14928494763236244, -0.05447737164087181, 0.3231498701412449, 0.11145150080317717, -0.10578380127869086, 0.06136393168979433, 0.25706476547036466, 0.1291277929489744, -0.02004261861040699, -0.05949180491027044, 0.061381461143340005, 0.045054367634452995, 0.15420723105242304, 0.11112220484494809, 0.1901707468265979, -0.08311803332556361, 0.16468687779757257, 0.043593642351716796, 0.38279741128520317, -0.12969721812299773, 0.31503610916098, 0.03142385361074292, -0.08809474331165285, -0.032662153978294216, -0.05639377739566905, 0.062400686800086355, 0.11051121526825394, -0.0659482836221223, 0.04245178033645125, 0.442384959714774], [0.309187761822828, 0.0748636702671061, 0.005522655975700707, 0.020509492484122108, 0.11247986812545864, -0.18341022018564698, -0.045254436926268966, -0.29924551599946914, 0.0736602040154262, 0.11353243433379001, -0.08925107613359982, 0.2720643478983603, -0.21608883438866336, -0.2581389489298743, 0.041050920046866134, 0.18806140067231344, 0.2970855489847436, -0.07845651452175567, 0.1976782805939766, -0.005961828581012853, -0.028681646768877227, 0.15937988086428617, 0.10928360956289893, -0.2668855291993143, 0.2606031749100408, 0.23820313901173548, -0.110265837746601, 0.06810793862714638, 0.0896418624975378, 0.04399728742626955, -0.0962024030766908, -0.12239471883685088], [-0.06367222625981214, 0.319795183299612, 0.06018654571435339, -0.06970121963092545, 0.2341934138341672, -0.4998493156705111, 0.20837823482815154, -0.3169260841602405, -0.11125729092459208, -0.20519700590205578, -0.31840303636737494, 0.1997314091545115, -0.12225293980718843, 0.01884228457020053, -0.04752478060085092, 0.08601189112394625, 0.05377065317468734, -0.20735885913902607, 0.17647354989825736, -0.03908726680902556, -0.24527870090195264, -0.05765935927363924, 0.3122915745496222, 0.16027064737336072, -0.013123079021704264, -0.05083416301887178, -0.05764096805651362, 0.35089476592866503, 0.05019769909666177, 0.15824288873945508, 0.174963635252433, 0.06072763994356068], [0.0024165533554951534, -0.05124796342535525, -0.1143439024208364, -0.006487553832884696, 0.08059384662017006, 0.026241247179298998, 0.10432774297822511, 0.04719782819106791, 0.031678092597732646, -0.3490024809504843, 0.07032164392229583, 0.08131613637761959, 0.23633960818821476, -0.47320565198736425, 0.370080952658773, -0.044843940868446466, 0.17503926442292647, -0.17462973873972656, 0.05960122039039895, -0.20466116985066393, -0.08017842605022804, 0.26854942105363816, -0.03989148776734217, 0.03980480140730786, 0.1517522294686363, 0.09261764801419681, 0.02683697400187519, 0.05247984238346261, 0.4493351085827778, 0.044494232706646174, 0.0570358082810985, 0.15659434556269242], [0.18439520040464333, 0.23743230869038667, 0.13086941588778592, -0.20211741509739042, 0.23599927201479737, -0.22381966604131698, 0.055873978676935276, -0.18379948724118747, 0.004576382236916313, 0.05691355119467687, 0.0540051738933647, 0.13739873422807516, 0.26738675647695775, 0.07786645393190357, -0.06362091405242017, 0.14270904026511552, 0.16826009743185863, -0.21363305156282159, 0.10374721891492888, 0.10590521104868186, -0.05438766127975224, 0.22203574300937146, 0.03999574781074708, 0.0031312798334213582, -0.05817909978210878, 0.10682074540326453, -0.193507344602549, -0.21758231719044854, 0.24283113400942216, -0.1365859674098385, -0.14124416196962822, -0.35639112899813136], [-0.0487039399614487, -0.28203612813737683, 0.2986267379402452, 0.17811122434370508, -0.14150569560061133, 0.39200053984983657, 0.17696468637101706, -0.06595094568458676, -0.42868604234615737, 0.39876721999679626, -0.22307762297056383, -0.2818672175550019, 0.13788638187459418, 0.4513075743497434, 0.2534663215301277, 0.08591467628349059, 0.046605963499822274, 0.14757634350003881, 0.12914333474108636, 0.04849537247024564, 0.04185288031122346, -0.034428463402449705, -0.13246777542015403, -0.05010644375825968, -0.3062428106682456, -0.020064907164645013, -0.17394906512069122, -0.22006261947512445, 0.05097137448636965, 0.2583270229538132, 0.18680531276797302, -0.2837244745405127], [-0.15805919572113797, 0.14519830727488334, -0.17566468764477308, -0.039517536479202406, 0.14931085946774417, -0.1618785338952799, 0.014412627728266613, -0.22850069998379666, -0.08780890966517754, 0.05951907136193738, -0.28164674221227665, 0.05712542569080657, -0.0020673363035015246, 0.09780110144025891, 0.03155195515664338, 0.26845651616953176, 0.013053512515023943, -0.07629394216293998, 0.024151842654536806, 0.10953243359322251, 0.010120994711727234, 0.02772442709094238, -0.14165686464821212, -0.11705962796166651, -0.24416348821316294, 0.2731108401357814, -0.21936986210932471, -0.11633815829572547, -0.11408163664660222, 0.14241122775779785, -0.05287331578287543, 0.20691270837567097], [-0.14726458638824036, 0.035066758490459746, -0.15680825948841434, 0.37662153308503626, -0.15552291539855725, 0.06806668422984287, 0.09411868084211066, 0.10489952817791261, -0.025849739979930227, -0.03208839068666282, -0.006125955057393913, -0.0033083814116770848, 0.2610021508021272, 0.42004021755485943, -0.13269663473395746, -0.20956318868785032, -0.025409532765703482, 0.42716878294887795, -0.18430813804388058, 0.2838902617182592, 0.28670566928296837, -0.09987439925674364, 0.05090700090557969, 0.3104295874613218, -0.07267820319826424, -0.05780188187802643, -0.10274116700974105, -0.12717752017176634, -0.0772982600274874, -0.24203938302750358, -0.01946811061552018, -0.14818168534947532], [0.04760283276574495, -0.2776944695123616, 0.05616077443447547, 0.14702853483879544, -0.29537093110894624, 0.06990967045682556, 0.21508859553016338, -0.21437515804500124, 0.2982514714939537, 0.07943045822721878, -0.12956996956197628, -0.034201512961001664, 0.08249746193013528, 0.013349325935472143, 0.08957854764682831, -0.13469335815948502, 0.03519607874185321, -0.248511450730003, -0.015393604350743939, -0.15535684307220826, -0.13427712224506905, 0.25700046136206717, 0.1913950603069917, 0.10605253497401812, -0.1919309207996558, -0.08198426476473575, 0.21385726381626685, 0.03834519768171045, 0.4063923589642947, 0.04972403021897209, 0.025041384248762427, -0.07134347648765052], [-0.0336727289789479, -0.004296543874001414, 0.12258689197226193, 0.1683985902509941, -0.21268517450312976, -0.2526001231930288, -0.3238043161956275, 0.14691380997920625, -0.22881826404088668, -0.3834741721700034, 0.11312119338619904, 0.49595669706919154, 0.08869869111812824, 0.14579857676069058, 0.042882367739254273, -0.055854434118107296, 0.22129364330267715, -0.06532871790295697, 0.007281075406672159, 0.005813153963747424, -0.14167956929798575, 0.12216250892682654, -0.03245026303618419, -0.14091684698992554, 0.10974329405019703, -0.1036341196418687, 0.0050320147882777265, 0.018961914255884428, 0.20543873914320185, 0.06687075008802054, 0.0020251478384230677, 0.18733592447334166], [0.2620344663153429, 0.140730735063776, 0.005365402339727477, -0.2331124554930488, -0.08321855242544257, -0.10531853729096799, -0.11416034708954542, -0.026021103140265563, -0.02558879357804138, 0.09476275311760801, -0.007974445027107565, -0.010645170309702223, -0.004175232762877788, -0.37312628577743423, -0.1253744318798468, 0.025611246133839926, -0.15831435244846365, 0.13968105810618403, 0.4123905443530381, 0.19842104559195683, 0.006408832318761531, 0.28815142428261276, 0.04832740176599669, 0.034059519659538476, -0.06352340277138009, -0.17262120178626275, -0.06839424309717447, 0.022211396609606707, 0.057629680616200496, -0.0052886719485899835, 0.10085822552412918, 0.16419705354239253], [0.20984006816214604, -0.31091477286830604, -0.4696908923287276, 0.16099628102536293, -0.23929020467448095, -0.07535941838912714, -0.20410200456465158, -0.3637870550039467, 0.09138347257144286, 0.11155317023928273, -0.16340427174110306, -0.437448198116311, -0.2006653311248331, 0.0969259317578341, -0.2518370698040401, -0.005570717565477984, -0.05343830010559574, 0.12453395745851652, 0.05669004686475631, -0.17654054532618074, 0.21861070073538913, -0.01644711126178609, 0.05165676836647176, -0.15029606677051335, -0.05530107349913666, -0.06689631512214331, -0.030154123588605784, 0.2564109107425368, -0.25221060217030816, -0.21542596193543836, 0.2830668853915809, -0.05290880317278007], [-0.10700635759221341, 0.17311632052518405, -0.10860216909660003, 0.3219388595274513, 0.12002525303525761, -0.08675378967167677, 0.38025801535036924, -0.09704354907772932, 0.13089043676878293, 0.05300238921143138, 0.22294801469532388, 0.26998510491690164, 0.005452802790116936, -0.1331394885876014, 0.08767174869731319, -0.11509820804123608, 0.35892832284323645, 0.020268619678147994, -0.06337923899698353, 0.027544885583639146, -0.23852582365761651, -0.16943244844619557, 0.21411096470222574, -0.11561796165884541, -0.1788441900107345, 0.0904583134170277, 0.20927264458824174, 0.12703222207932136, 0.18311824170995947, -0.13146566349325134, -0.24838067121470742, 0.2535894746651862], [-0.05050810715179244, -0.05141810447480179, 0.214758986120991, 0.09810435496984726, 0.0683565153901552, 0.38730178499543544, -0.12695610307348418, 0.1872165333086853, 0.014219762179639219, 0.04943310542147766, 0.2700696373140179, 0.09303215183528532, 0.11619840811641767, 0.18385082467247, -0.06371129523947, -0.14402088508598432, -0.17095095968370108, -0.3410931840129567, 0.3509325899479466, -0.19819436107451754, -0.02796665332300078, -0.09555168788628574, 0.07480946075146891, 0.1317607974885909, 0.16472332112179283, -0.12580791717099113, -0.02964312788909379, 0.04701899490128687, -0.00673461570477454, 0.2717113520912317, 0.10558074864703523, 0.1391242335964389], [0.11833934968375949, 0.2086240903203316, 0.03104188727722305, -0.22866803295204804, 0.07975280023715663, -0.11301161374670204, -0.09346057414845592, 0.10206525558193577, 0.21704914816787077, 0.004081165179461614, 0.05216712986987873, 0.29561295780836433, 0.038827526712653763, 0.45908949046720665, 0.09863225764173465, -0.3077508896447485, 0.13385828745111045, 0.0682404406763402, 0.22811927690195416, 0.11927474191069984, -0.02480458095454852, -0.20857613691890547, -0.03684999189726957, -0.14679628283833224, -0.10251790329565422, 0.10125389032217165, 0.29435566364904314, 0.06971794984311502, -0.21371457799759305, 0.0804241415532845, 0.20885007968378322, -0.11048924459958057], [0.00980454244637622, -0.0019157844494389004, -0.1439814914829898, 0.1135786913293999, -0.06432702593512071, 0.06801604939374065, -0.15622542998437217, -0.07398307528791431, 0.1534182963707749, -0.07048631609752129, 0.29101212204143245, -0.0560192175653591, 0.0334473163128463, 0.16353828274836482, -0.23897835958526986, -0.31857299784202064, -0.28627000977820843, 0.21117164318430096, -0.11323059630779063, 0.4326164847307025, -0.09705763813965045, 0.0077881662191191725, 0.27480401542836264, 0.3518578520856745, 0.36342974837869946, 0.21846197286465724, 0.18086997977208583, 0.09403278042887614, 0.15469645290639297, -0.09116257075622312, -0.12103906089982416, 0.011536630376838122], [-0.02647272542533842, -0.09003292085199432, 0.11941676763983715, 0.16802692493604857, 0.13144988120616224, 0.2708084546057732, -0.20313449331097655, -0.0726597588737631, -0.13033834435281436, -0.3267490035595384, -0.04653196507791902, -0.055627440037436915, 0.2170268605125386, 0.10307026930272992, -0.18225805850340984, 0.34226514979804323, 0.20902558904010832, 0.12402119639141646, -0.04235008292055596, -0.1641416471182774, -0.05120897427236625, 0.24806181837331231, 0.3558280337492306, 0.2804826129634446, -0.07018365846605003, -0.20513098490000273, 0.024689802235232802, -0.32172945322977303, 0.03250577639991684, 0.013668666502327844, -0.08022447128728011, -0.30664066926596195], [0.09052092708259588, -0.09407442914447847, -0.20726270981357112, -0.5064753996392263, -0.005249791393278317, 0.31285606087331536, 0.29279498836420964, -0.08022917450671146, -0.10664699258350886, 0.08289113792233507, -0.1766116663818359, 0.05340154628764247, 0.1356693499090251, 0.21654105892692813, -0.017865792317921524, -0.0358892251482416, -0.1547929128868992, -0.14630428060536993, -0.040631846327881437, 0.06474439862045221, 0.16084388775279893, -0.141995787226864, 0.26286503554973717, -0.04785663079211272, -0.003728662849897371, -0.1318515712155143, -0.42749865075969656, 0.15562841300414437, 0.12995450452284402, -0.04895144469028348, 0.011669186886270493, 0.09093722693697492], [-0.22938794771151708, -0.13588957213151515, 0.10895053373249952, -0.2211528278879641, 0.016888278035379407, -0.22424136364405664, 0.07631256174543824, 0.042110607050984364, -0.2653365594875614, 0.19233264300912448, -0.13252343913348097, -0.12063380728076116, 0.05117639000759107, 0.21480471748248417, -0.1719967895165673, -0.0017752006403965064, 0.03521639500159365, 0.10617236505828803, 0.014797628602811374, -0.07878805176615335, -0.13610510732805364, -0.008840477620061429, -0.20430395274826532, -0.5220043624974505, 0.06913306923586197, 0.16993769152439153, -0.4161618926871589, -0.19442331340187913, 0.13770237095043683, 0.3768469228766472, 0.00737125283530245, -0.13832442121854366], [-0.03167556737282082, 0.21894017731415066, -0.1592373909810154, -0.1414555360559426, -0.13447968517826417, -0.12760451131996178, 0.0023992813071032648, 0.40341138420768496, 0.0011394003592240134, -0.058874223697601855, -0.021991844226380064, -0.25038241349750806, 0.21610564175636224, -0.02491983586933676, 0.0352073001002322, 0.5331020548813596, 0.14234986302872163, -0.13831210557948173, -0.10961246936487147, 0.12579357391895032, -0.007204342475112969, -0.25347157458334896, 0.13242374901598375, -0.13078026946150034, 0.36010080961538843, 0.2504070448033993, -0.07767824773762644, 0.19650900433055196, 0.033174155654750806, 0.1629254950132031, 0.08911917556196947, -0.15619580020349813], [-0.13243491895178094, 0.18277334795628553, -0.028351531436128074, -0.07137061089587105, -0.1216338527225126, 0.0656417722022429, 0.3468564314728511, -0.21602393646275528, 0.034003234522438225, 0.2552251753404274, 0.014979623512672924, 0.1077974582635026, -0.18552173541124245, 0.07320239009383277, -0.06991354620368927, 0.18753954309038476, 0.18649076186147268, 0.4528980405329183, 0.051153451724995525, 0.0585630152864761, 0.02355933881472671, -0.05057800234560897, 0.0784173227178865, -0.06617693985752787, 0.020613009875177595, 0.27076909376368385, -0.17795727851099785, 0.25132094541109534, 0.22782196679878777, -0.05111899175563517, -0.37109673393475184, -0.08440627450745769], [0.2660854617296238, -0.05231654411550746, -0.2530684682720944, -0.08975709580874042, 0.05569987045078583, 0.023537543499378918, -0.04480647461239822, -0.00997921790363274, -0.01972486239728412, -0.18941356731115694, 0.27775368049037363, -0.014066193247657337, 0.297191366236331, 0.2902854021093329, 0.2624218191441272, -0.11054132667534658, 0.07447438166900106, 0.00487063788043859, -0.1669188564187396, -0.043944936093652284, -0.18966116735776017, 0.12795525409436728, -0.0796505028082826, 0.05441512330831416, 0.07274353204826557, -0.009220989858080512, 0.10480376947911353, -0.08301150429649726, 0.21386377101483087, -0.2662675343950243, 0.08782126628080708, 0.3469864232454548], [-0.1907436889194673, -0.10222933402641057, 0.06650853847069509, 0.03169352690566768, 0.1305473766701104, 0.09552329942641587, 0.11555406543495608, 0.19494367804313928, 0.051697932785682674, -0.030599071686063656, 0.10772463248890686, 0.3098044769093974, -0.025704728578516294, -0.16482369909656566, 0.19043116850340383, 0.011825815990514158, -0.3586377745007933, 0.15058332563633997, -0.09311044889922453, -0.014650827742004146, 0.05542039898515171, 0.07571585036588879, 0.1063987596353889, -0.07831824292875733, 0.09415675710460956, -0.08278858473834233, 0.1301565031795059, 0.127148226281185, -0.16823495667836902, 0.17088258488221889, -0.0991425442096536, 0.13283420121882666], [0.10655621428142564, 0.29839621039337694, 0.029196291992864908, -0.06288519874794561, 0.027749939270771334, -0.06019476000895898, 0.17713950131274653, -0.2781995983166878, -0.19924145499369134, -0.1988784653223071, 0.22427264548437337, 0.24765003852159012, -0.10100397042061238, -0.05328907264894989, 0.07674113634503425, 0.19157598521098046, -0.14535173010296776, 0.06723841862864259, 0.3134289679123809, 0.081071625737881, 0.07431179067402839, 0.21199457268487998, -0.4581742179874758, 0.1296259862114949, -0.11531750966395449, -0.3541533441905647, 0.0914956198162648, 0.22145122672976156, -0.04773947526536938, 0.1572513792486595, 0.3138924754465218, 0.20644158667026394], [0.28103708273020916, 0.09931776968114145, 0.057006684056584905, -0.2827107907457446, 0.010504487399656693, -0.18077874735158111, 0.3807585788279616, -0.0734613342092941, 0.0588932113169226, 0.07553259977728216, 0.04362964495401926, 0.3186035471678435, -0.12033206669260584, 0.05811840388070816, -0.1413785761013277, -0.22888720755923073, -0.1597949108798341, 0.003488621235096154, -0.07434684431613611, -0.09884593255206695, -0.2350738557194575, 0.004456061502889191, -0.24622821190713037, 0.11124768897235256, -0.012098934620290996, -0.24372147302023528, -0.054594688160870784, -0.08253162162282972, 0.034584362128342906, 0.1802328442316877, -0.3118947363539512, 0.038625166785555165], [-0.0377393766719903, 0.12706752840343558, -0.008500499729468002, -0.13285038436304353, -0.034696170622477165, -0.13649598455894477, 0.19246645668830634, 0.01380212202598485, 0.3288735615221311, -0.011818923328368303, -0.15437755897753094, -0.2577385208308812, -0.3134128425371894, -0.2737799623112031, 0.030988677414521448, 0.08483426835508695, -0.2969455666649375, 0.1433554395310365, -0.09426695504120346, 0.027916053563185717, 0.2878249658986403, 0.16408973570953653, -0.05414305645740216, -0.16270844167508747, -0.3816813153716186, -0.11129748059295667, -0.03730973019390623, -0.16414184229477208, -0.04459894341649147, 0.044912435492112414, -0.03606181491736962, -0.11986886839744539], [0.05765740843435984, 0.09163925234082307, -0.21955254444570613, 0.24445604770981394, 0.03228662434340441, -0.04870525602316269, 0.11355131172251436, -0.02739857940984934, 0.2024991690509873, 0.054380605341516626, -0.18387371455902604, 0.07143009292182141, -0.24599403381866752, 0.021415921943913292, -0.016172645493397177, -0.014938836968985465, -0.03731179979275003, -0.3103466079896427, -0.07762268100060457, -0.011045154088662927, 0.030006461921251046, -0.17250733733944612, 0.2516785097741792, -0.10686972636921253, 0.1830181469713881, 0.10987441717240991, -0.11391206263213953, 0.33620289190778774, -0.19068161584359958, 0.16018522074708666, 0.231613742575159, -0.11419451541697395], [0.23665682462596513, 0.011324939872653851, -0.016086737094909886, 0.04383926426020696, -0.0013914820260074684, 0.14152684999511198, 0.12187478555075647, -0.2968380488188928, 0.23872631015068577, -0.3014114331545271, 0.10254493353298112, 0.22388531581457036, -0.19631935185239763, -0.0893166769403925, -0.2136185028514294, -0.03012416993859523, -0.040117793941249265, 0.15262297600311395, 0.18361953654567523, 0.2526091456452327, -0.08865626286499456, -0.05554037660297284, -0.2704533515036237, -0.15258633515563644, 0.19692196410725346, 0.3073927550969852, -0.21800593380215535, -0.10657568386387994, 0.010843480419316974, 0.07935497813390839, -0.11860644546653457, 0.09563207779855618], [-0.08289612990572892, -0.0035108124707883825, 0.09574625860445558, 0.0011548719127749505, -0.07709361732031361, -0.019157788024543772, -0.015537992347220258, -0.06527476114960727, -0.045008614972881784, 0.28229691959572284, 0.09859890062729992, -0.0520228924939029, 0.12227606673993081, -0.058798334211935865, 0.20667780970361518, 0.06534005251333112, -0.019466403105848382, 0.0787465698367305, -0.2775738353393595, -0.1986597953330452, -0.21086919183921254, 0.025510711399532985, 0.3056940888905001, 0.3930806173274645, 0.11233369764733066, 0.08858676319267221, -0.3175968772350263, -0.0957777242925794, -0.13880138979758636, -0.1097143029693197, -0.02975393553985547, -0.08364797752076418], [-0.32727371406961425, 0.11629343870319857, -0.20058547322412917, 0.04232208663399986, 0.4423677166834794, -0.14200716398042412, -0.4482490265393552, -0.05487506068596208, 0.1941511081037589, 0.34182044199730116, -0.22477002938851606, 0.0636097502619495, -0.10631361065619802, -0.019096607066862552, 0.45662617684646983, -0.2447880443918579, 0.026317859822202683, 0.08264879654621728, 0.1926707108420353, 0.03722965462290485, 0.06727482248489429, -0.034220077397795215, 0.04354138761787988, -0.06883440777928301, 0.11127470211364351, -0.09167147321238216, 0.06622773129165144, -0.01029026579252143, 0.1902910589827996, 0.018936456098299057, -0.31098180459530117, 0.19699068487268387], [-0.16389955426177727, -0.12407821350474277, -0.12046841992034939, 0.24253851599185178, -0.2831339296687157, 0.5547391328267932, 0.15982675738103655, 0.07142369656286268, -0.006004842424480319, 0.05517246804024606, 0.10434053961138033, 0.10268827848011602, 0.1342731338243275, 0.017176881424702195, -0.06020868533192521, -0.0171236030365311, -0.05793018873478685, 0.18590672868728747, 0.04790195956980203, -0.5056220143033651, 0.12317323691798573, 0.05878364107226902, -0.01947090612229084, -0.07298891812858882, 0.20729239130000188, 0.15281714571693347, -0.13701843427522353, 0.08935292888596794, -0.1813448109118705, -0.2241973061160234, -0.13222143742402767, 0.14228929003731652], [0.1921130923512883, 0.039107123480341455, 0.105151527779478, 0.08800298246640326, -0.12091715407217846, 0.051123601355793954, 0.11732377090258363, 0.09651492991541549, 0.2481761857902593, 0.09743246237852052, 0.03321863253304978, 0.2437919428107137, -0.0010454878657384634, -0.11975584150305603, -0.03932225437563955, -0.11721614699344793, -0.15979820300093997, -0.024580567007392758, -0.1702256143500038, -0.06923794100857367, -0.344166428765571, 0.006350062891796349, -0.018042026416583812, -0.13733171222773063, 0.10985310032570994, 0.2152157149714179, -0.2830479105985475, -0.1088496780285607, -0.09042481642966436, -0.1926558958697972, 0.2019935311380524, -0.020279110622084772], [0.009650270689103988, -0.3556540309918555, 0.007783062619424081, -0.21834228025376992, -0.051678868868237776, 0.054846082638177474, 0.2302092276912935, -0.19943072135942236, -0.4983347045026847, 0.038973524207984014, 0.23217301792207107, 0.24596783266133423, 0.043531752504296806, -0.08977341320091493, 0.117709712993014, -0.18075816766476724, 0.05396098243203684, 0.08565949970337149, 0.14965793821286902, 0.4852590720960609, 0.0838684477814407, -0.16147839574139586, 0.02142583393897203, -0.32187395272608144, -0.12115833192216603, -0.07529965782041888, -0.09240395915524975, -0.0032642141224722174, -0.09438306346209936, 0.23310459788600596, 0.023654829786345862, 0.0072210649659003616], [-0.11011749517838547, 0.04238998907644334, 0.18960230522605417, -0.15395162422444472, -0.025139142432463946, 0.0018313949568228636, -0.24033462771876984, -0.06895519509591869, -0.1442944144950583, 0.1307357950065034, 0.11051356594489944, 0.013582043840522388, 0.1809324122590713, -0.057468801509104286, 0.09646664185367361, -0.002670748058875474, 0.128493439748355, -0.08366429234069103, -0.4159562802738449, -0.016190619093853487, 0.2692733569100796, 0.19465794708645617, 0.15270191823585677, 0.1960865012513025, 0.039431949086426284, 0.0012770856384068325, -0.10837677379087406, -0.04337018156984856, 0.10757467716371455, 0.1894090288737017, -0.036404573303344546, -0.08307120753533749], [0.018454502877576738, 0.06731319884582522, -0.3335896008724187, -0.4070464415588565, -0.03225628915071717, -0.2503718247062202, -0.09556956983303917, -0.01508136460439783, -0.0735006302910812, 0.19878604414365605, 0.0343775590922269, 0.08820085421930429, 0.13437435018031935, -0.1479543103220095, 0.12744149135162167, -0.007678155582221036, 0.0043795016516743794, -0.21779956953579618, -0.23238891862079092, 0.19988870071823725, 0.10806497914192797, -0.18602042544106331, -0.17772919023442998, 0.2015638756230161, -0.22773658501006452, 0.27699516092858156, -0.15946325374426912, 0.1277774723225387, -0.0377728809223395, 0.13031599007110264, -0.09451392125501068, -0.022756380342173185], [0.0017625604386370924, -0.18574016296526513, 0.18993545638847792, -0.09636968381274667, -0.0885533733957398, -0.22694749981478707, -0.4654454659631719, -0.016365491656424615, 0.44042689021173115, 0.11817991160909791, 0.016145593675998975, 0.0052775744024603005, 0.01381254624341459, 0.08610382700230636, -0.16261700531183196, 0.1783716841962241, 0.16584111335257024, 0.13878382231143996, 0.0764593148366714, -0.08053938598122326, 0.0955621664779342, 0.05774514827964632, -0.029840665114156627, -0.07780565451500483, 0.07307695637863489, 0.3567504921305606, -0.2177826268711505, -0.2297510959617092, 0.09711345547567307, -0.03844428680326439, 0.08174919010458741, 0.07418581207943155], [-0.004178085629487504, 0.2097652745979596, -0.31490669197889537, -0.14725194630577704, 0.02214685656613919, -0.29241958489967335, -0.03578251300711969, 0.33222646041982357, -0.004298618506277894, 0.019766863735469768, -0.23046489051882205, -0.11848543624677599, -0.049795493210952835, -0.030824849429677736, 0.22272826940716708, 0.10663708394460404, -0.2314187020791015, 0.02964437725084847, 0.13573131669954366, 0.20641601524980271, 0.3011975578257315, -0.1838865583954015, -0.16806860196585685, -0.19584594635014374, -0.04084611466347798, 0.05358582072472383, 0.17440000920215917, -0.02232568590674026, -0.021791124998859154, 0.039348600576737655, -0.15303448274436907, 0.3351158837823305], [-0.2768581298956061, 0.02000834136764513, 0.3548287197784131, 0.0012208728589816788, -0.03532179427567859, -0.061039589213328964, -0.03265449089055598, 0.24174051679895148, -0.3775292226774722, 0.2697203631467417, -0.2527721630080664, -0.04549865762795858, -0.08073664326937707, 0.10457698114252895, -0.2839589606271558, 0.08155846210857155, 0.34337164275123044, -0.2409616427149521, 0.031094515347241083, -0.11315250477346402, 0.07907633713888844, -0.0009371934493513795, -0.11171568104070467, 0.08371033893352375, 0.3176849831952886, -0.03577373262614149, 0.1268508112861264, -0.23419098926670515, -0.16148982224814387, 0.08836387608332881, 0.2650147129376165, 0.05818089594274511], [-0.05450963387916033, -0.000581969151308077, -0.21975744968475655, 0.10660792740321148, 0.15505603485524302, -0.08011657537214409, -0.08288394663431561, 0.0458615747952474, -0.07605837334448662, -0.011524560138466049, 0.3702319690874988, -0.04360845582533795, -0.06385828538999629, -0.11400144221674324, 0.13128744636522713, -0.031768229875354055, -0.1150575612282834, 0.2330188972759137, 0.2503248800619519, -0.10622418401110828, -0.3293809710350203, 0.1777541586964613, -0.1205954999334263, 0.13952054121826307, -0.3476749424873125, 0.15758576749268938, -0.21357509361332422, 0.12901850716650803, 0.0026286615495208247, -0.16865099962875113, -0.07135774404820351, 0.12098454249237746], [0.07399945127921546, 0.04904878019713615, 0.31266548464813587, -0.2759596717488756, 0.1835107919365586, 0.005906783258171615, -0.15718355211453477, -0.22565902205174357, -0.012202059964508617, 0.14932373963841436, -0.04586928007118551, 0.3067869466046347, -0.2584751494763112, 0.0317654637703904, -0.20825422002989108, 0.03362589317144531, 0.11657158951634014, -0.08501612833605235, -0.457587615588815, 0.02322399251677816, 0.08561346950178603, 0.004820420581264189, 0.2230059256103383, -0.18996121610440023, 0.1049454767558264, 0.2446241462689191, -0.3129955163109944, 0.02985378729811471, -0.049055202384416574, -0.005802452751281466, 0.09453155461637192, -0.07888272475463982], [-0.09371425630320997, 0.005796182171914685, -0.16000012839566255, -0.19265474289188844, 0.11304657696327147, -0.23828661247802227, 0.116758307926677, 0.058099776945249704, -0.2851793631798021, -0.13250343839484927, 0.25328519536722605, -0.17192250237403242, -0.06270917017863545, 0.09456358116883476, 0.1740470968452447, -0.036880203538986855, -0.11411419129858562, 0.25798842141559303, 0.33479528147448984, 0.13026218213749188, 0.032098284499960425, -0.15681270372144004, -0.16068745964850642, 0.12122842733620236, 0.070171003899765, 0.23212957265655348, 0.11517472312722492, -0.23604523148344664, 0.19960877658122367, -0.21175722746424866, -0.027145257656537403, 0.055191652831971805], [0.3167454762090488, 0.5586717074299753, 0.1333675162580236, -0.03343192580003859, 0.1754566944315612, 0.1912409815345965, -0.0707361075065997, 0.30427395070937346, 0.01901852707749346, 0.08360719576857159, 0.11665644559018429, 0.06804057147389396, 0.14308953964366208, -0.11898152553142935, -0.11070703254533573, -0.1448019195445775, 0.11861599326144483, 0.14342438567465735, 0.04381963381768349, 0.3077013153011142, -0.014767050604982178, 0.16059208438742587, -0.213585483184289, -0.07466177848929959, 0.13581422498726756, 0.13472737703068577, -0.05174828171069697, 0.017194999299851344, -0.2580196778650869, -0.09495599412099552, 0.1527728708144495, 0.09441107866846093], [0.13664722107081748, -0.020416326547442677, -0.03746580166802781, -0.11870832571797027, 0.013203438375541306, 0.06982066565242835, 0.054765992733125185, -0.0027365966683322272, -0.2708337467128487, 0.17201463870416991, -0.11015953348958138, -0.05915269561730281, 0.07853061101473006, -0.11011513389111093, 0.20199527753863591, 0.062072279815454295, 0.0944213005968859, -0.23826164435066502, 0.06979651551399649, 0.015896732933876962, -0.07458110684158, -0.04396143307971691, -0.2477515321449383, 0.013657141888861194, -0.12368526825976603, -0.1342390874774905, -0.26791393121420176, 0.15411916142722132, -0.021799867159200542, 0.27724493917546367, -0.06929386890863137, -0.25648892686351943], [-0.2050776664952644, 0.18397689776624304, -0.12004552362078384, -0.09645988241269994, 0.023160875198744622, 0.09702815316156872, 0.16235834051154902, 0.35778455010839016, -0.048778360696773736, -0.2516883178616412, -0.1005096259090775, 0.08859892922377978, -0.08854825707369254, -0.15135916060505497, 0.028980556572469736, -0.03041949423241079, -0.029888785321315028, -0.1456553151370257, -0.11839998489860966, -0.147295795799228, 0.16366414648575717, 0.12864937100045698, -0.32251445501891657, -0.1883197938226621, -0.24661514247703545, -0.09419169785375973, -0.015258285281832016, -0.25763160847193, -0.12912649019354291, -0.14576989733574153, 0.009953877240848145, 0.006294534958735824], [-0.12587133400052966, 0.18810983693122474, -0.07754879239482093, -0.05250311423854709, 0.3010862830884608, 0.21754631773277439, -0.23650693771727418, 0.087561789254944, 0.17057023762780876, -0.20160662766059184, 0.08171014973533615, 0.2750143041629651, -0.2276179224869397, -0.20322545955687502, 0.20120093650329945, 0.06921034928127635, 0.14852030088041349, 0.11170518537728302, 0.06232994738993063, -0.26196837228339903, 0.22086216126222116, 0.19766770318137744, -0.014192860744061536, 0.024141246620744784, -0.2525591507403547, 0.08660055584788852, 0.10117148177349562, 0.0063228067096336785, 0.2010388208837703, -0.05657390520694137, 0.17021676211131107, -0.1303156112965565], [0.0582377487116452, -0.0809758042914357, -0.05305856902629347, -0.06852197531636346, -0.036462631943453346, 0.08552879363546499, -0.0771404857231932, -0.2868086585665521, 0.3907187293169351, 0.17487677296610193, -0.27666274384169753, 0.18598909260726193, -0.12293177461367567, 0.10543037753441191, 0.03223609644567932, -0.06744082696742183, -0.2763847139277701, -0.13259829586014069, -0.14290504650107125, -0.11891726810398855, 0.02422280411658469, -0.1588785092478397, 0.12333294058726312, 0.23476034989646513, -0.12523679953881858, 0.09766205013902099, 0.088411446047159, 0.09758596689328021, 0.02148546400669954, 0.137392604192351, 0.1312886055284938, -0.19207312759364126], [0.15356452763578932, 0.17519484838949256, -0.017683605415828932, 0.005941528161881976, 0.16020377402346073, -0.02353845768421775, 0.20878598342980903, 0.36642144484931455, -0.20520346706062437, -0.2639667640571231, 0.1324148934483111, 0.10425741508303388, -0.06700287254602236, 0.24336992585039915, -0.18951732131428367, 0.09168431954430588, -0.09385766835350925, 0.3154213189859504, 0.4212981513479513, -0.13739152191227508, -0.05915696939645008, 0.1776264552796481, -0.07531778848041369, 0.0029911735702401895, -0.008125596149624591, -0.33403123577770816, -0.001857944645126195, -0.1406071511781073, -0.15256740617536665, 0.31276553098486926, -0.1891359588744762, 0.15738155250736116], [-0.036536519121724495, -0.050646811410753445, 0.16087114555817125, 0.058524563152922544, 0.18807664804740254, 0.16807776494111984, -0.058832916131039845, -0.13082510483324988, -0.1625733134223343, -0.15457443448060326, 0.5138254065659394, 0.20430031855010236, -0.23819273685616232, -0.23058519296854588, 0.06833389366753344, 0.1273351820521529, 0.059916514799974493, -0.05577620778063526, -0.012968024460219503, 0.06876483493087503, 0.02587239360556743, -0.3541571860538233, -0.043727641218524994, -0.15056231205741988, 0.02794250070587419, 0.48452869394798076, 0.06464306372387221, -0.03543880541801634, 0.1550310794749472, 0.07935029846450768, 0.07600535852829216, 0.10171681938747672], [0.3725648541536069, -0.2113814935970151, 0.06062230384866231, -0.16500536657073894, 0.11857810504227291, -0.054890825286533836, -0.1010713720268135, 0.017583970405389584, 0.13117363173333263, 0.17449932403023882, -0.2188345820358946, 0.03704832474690581, -0.08322564680575865, -0.25910455526437504, -0.012172249258189861, -0.01609289364919237, 0.524344812176345, 0.06687231102665857, -0.3846035016756419, -0.16601428356163064, 0.1479061304923923, 0.3628745035463761, -0.3260074164803709, -0.3527265475561604, 0.3633397204289797, 0.08688867322485785, -0.15211967647085126, 0.0904657044320809, -0.3879038597590986, -7.230160992495238e-05, 0.08802318432152086, 0.16494299692854664], [-0.1886908554324763, 0.034568818265710184, -0.19739020886829972, 0.042393703517953775, -0.1693978461499935, -0.11724283383232932, -0.1908482232267976, 0.1392478935164286, 0.15022071434136047, -0.051167425447204776, -0.01750138451565264, -0.23391550661704127, 0.02319888963193878, -0.0018773664727231424, 0.44229067539436073, -0.19685416281662765, 0.25134189114623107, 0.1569216215192517, 0.08028135438418597, 0.2960376111226988, 0.07859838268695331, 0.015623835540018467, -0.03436192585910091, 0.28522844528478764, 0.198574188639637, -0.12913289320507917, -0.2331349238019562, -0.023520948026126743, -0.08433353838459577, -0.004836542810951185, 0.2125386443291883, -0.07127121994612672], [-0.031810707663573565, 0.02624300163096831, 0.1316521125814654, -0.3961988592957466, -0.13775299139799624, 0.02383516902533331, 0.21107125209319094, -0.07648224882879717, -0.343981374973803, 0.10561713902005491, -0.09677309043243812, -0.17729373797748063, -0.061994805094838956, -0.021407484888405975, -0.11038153495130397, -0.4079306123638356, 0.15917993148311996, 0.21901698727566743, 0.10652913030907558, -0.20433659707156338, -0.03922073221280023, -0.023254008077058585, 0.10118645199169068, 0.1221270202996114, -0.13587717520950046, 0.04222254444182831, 0.0804522723056098, 0.26963069578873905, 0.12240149832309177, 0.1419322999323479, 0.005161381659320373, 0.26674092380634234], [0.03544822737159968, -0.08813120011349064, 0.3877178720522748, 0.11714460772007676, -0.08782928639513335, -0.037664284708881744, 0.04185977963579208, 0.08240745621294011, 0.0643313548693114, 0.019012667379586075, 0.3645340957546387, 0.2486595084938369, 0.0873439968148574, 0.1510328378428936, -0.1295638749014282, 0.11766488944320866, 0.37163648938553834, -0.03882491843067059, -0.23692246521037671, -0.1382925367011734, -0.18607361125368665, -0.15594163231442623, -0.1300468345911015, -0.26739749994472134, 0.018567402620660766, 0.13562148938170593, -0.15864084695715983, 0.33674013712221024, 0.1498577104062108, 0.0731768596087273, -0.060815063717036454, 0.21910534527361475], [-0.17909926618371086, 0.13077151913979768, 0.02998821641862586, 0.09763015730613739, -0.15469680094775867, -0.16181191664129338, 0.0984206523687681, -0.15518240686946413, 0.11226953499673124, -0.240175348885827, 0.1592145611449968, -0.23861333380011218, 0.08115482270891616, 0.10905102305994234, -0.1292650025224939, 0.12790090916839184, 0.030961609936529483, -0.09061221452348366, -0.16663409294737902, -0.33583547430124616, 0.06795555320489964, -0.2654230670189629, 0.026070262196273706, -0.06376350915243437, 0.12656335960267093, -0.09282797912837568, -0.058132230732733846, 0.1442527095778944, 0.0711730116530799, 0.018762049665442364, 0.08985078857991559, -0.28072301994267734], [0.12826722568673005, 0.08462344404953717, -0.13388981192426458, -0.04624356889011331, -0.015830686799514774, -0.055451915531400886, 0.053035870259413385, 0.2649017982488403, 0.21186429518183114, -0.22111942971697598, 0.1437687817831518, 0.24786126003207734, 0.06952302479190269, 0.16369227876067907, 0.40418683372858405, 0.1913508011701205, 0.10413572110478225, 0.21082164913371126, 0.03633851886801192, -0.07489506780488446, -0.07980848628957193, 0.2560553571936317, -0.10456141700250586, 0.28620367098239385, 0.130121399445777, -0.21157291126721886, 0.06572736322704102, -0.3336671052281877, 0.16431027850176297, 0.08416419307914391, -0.04607926018548698, 0.018490826527205836], [0.32080020382759045, -0.08303164373493452, -0.23669033649074148, 0.2590162849698041, 0.3511501903413891, 0.029041859751847338, 0.1662023566898209, 0.2734488682794783, -0.16657490570971248, -0.06920386223819602, 0.1521185257780463, 0.32903183309971507, 0.10728628300290684, -0.18054947036679886, 0.32615741583642466, -0.1049344891388758, -0.02586780334726811, 0.05279712734342776, 0.19817531698689836, 0.1442288527760888, 0.058761016299820466, 0.05581837496513359, 0.04482173930499321, 0.09891788356261826, -0.39788509438341657, 0.006074771004570533, 0.042146081871837236, -0.22664881010152238, 0.10713283322825072, 0.02455736047484283, 0.3016551397856213, 0.27453710682185906], [-0.08182628551023938, -0.02741969936436859, -0.013789794182769616, -0.07958157012268764, 0.034580715241001106, -0.1331105057601241, -0.1994515520308368, 0.1110551640000042, 0.1112998124454226, -0.14148768828214459, 0.1581310592191691, -0.1118949625312714, 0.04452554654213197, 0.14442205989817358, -0.005671722831726802, 0.08016218259813802, -0.09048513517554477, -0.03489721427863558, -0.037612630054004434, -0.13180290031456884, -0.03202965087069458, -0.27213237231453236, -0.08633469204544246, -0.05123043428901286, -0.044876386778126685, -0.042528602352737074, -0.010889655950783074, 0.08438743519439862, 0.15380679354529825, -0.11488552047818962, -0.21280151407889214, -0.18394917115854623], [-0.08450264706338836, -0.06250770584570206, -0.13643918692196944, -0.22853761743121226, -0.0822073725647805, 0.031759875098067505, 0.10506880381191062, -0.09869669676979555, -0.07191756213189154, -0.163111011127243, -0.006153926761797154, -0.14938863901980304, 0.10086582620025294, -0.3145272278314031, -0.0631510709975825, 0.05287566068832552, 0.031475952145391395, 0.4746162661599902, 0.061510643839474785, -0.1775457190477987, -0.016852369060409433, -0.3138776393006053, -0.014397521986694214, -0.14671949410717006, 0.16094282864213133, -0.09682103661153725, -0.02058219967062061, -0.11248517986682177, 0.30697877168869675, -0.0564583711325561, 0.3236793323197386, 0.14349613413113513]], [[0.04867133968241117, 0.05762505933944975, 0.09783207688163306, -0.3687067423011539, -0.060038852063433464, 0.19882435182435457, 0.09532286373617826, -0.3664978929529748, 0.003905512930608397, 0.5417327596882796, 0.305283393934222, 0.08469449555594158, 0.28619837543345156, -0.09666098266567727, -0.4440653370498534, -0.19818328675713529], [0.3651413863210371, -0.09182869384346691, -0.06106063110563287, 0.005938464225794294, 0.5286233359969004, 0.3991765383119447, 0.602237685478511, -0.052953132967750075, 0.08966502107479592, -0.44368234833113634, 0.34381769872061574, -0.30292228636038254, 0.02126497179290207, -0.2766541123240429, -0.1397461338404821, -0.19723945215008332], [-0.23595738342595157, -0.10336954103946357, -0.13595395808784005, 0.24304556642374148, -0.24356048835905164, 0.0420181271101096, 0.4097642501400781, -0.13884435502732978, -0.17998198732412526, -0.08453701343025109, 0.2879664311383006, -0.12483345870411913, -0.21704053877577814, 0.12177585935849503, -0.280901647363896, 0.32020747949652767], [0.10035875883243726, -0.07669519653574075, -0.20910381768663056, -0.22309500932683782, 0.13338010639781422, 0.3065600979329361, -0.15960125387352428, 0.11450312268911735, -0.5202991169541171, -0.14551259247235906, -0.0073882622344683384, -0.22493209076852724, -0.23329214878467144, -0.16643745930627424, 0.07283362629568857, -0.04476914766289251], [-0.5733327418528544, -0.5250590579710231, -0.151779347621111, 0.1331937050545081, -0.6307787477161955, -0.14901806443683108, -0.1197595916722147, 0.3167845246747287, -0.06637438772523842, 0.012295300151243634, 0.015214761666871485, -0.6406268013950988, 0.29114793234878816, 0.0516898922136127, 0.06384431084109728, 0.9170455072750215], [-0.5084471394880334, 0.45473816625117625, -0.07176367598018688, 0.05397867315656572, 0.007283629780820883, -0.11693859912857049, -0.13301842832460706, 0.08134408059034677, -0.3786104814410717, 0.18737791731692546, -0.10377522108280678, -0.3108274096134423, -0.0867856012851725, 0.3118892960118983, -0.1417945661794037, 0.08375986621111546], [-0.18555287204302434, 0.17516264773758602, 0.17097540699490196, 0.44983925826305005, -0.0384547401240165, 0.16567689728042717, 0.002362727257234653, 0.32243131983263135, -0.1792997318655301, 0.18691154331915172, -0.04904081205763211, -0.016005136999344676, 0.03831024708265858, 0.0629243254011265, -0.030587713870358618, 0.04310479975020346], [0.4298983435218274, 0.3106567866398561, 0.21589181955334127, 0.004429376003562144, -0.2630371487542526, 0.23957151101059304, 0.2904826648184052, 0.3549452514304216, -0.17239243609010513, -0.142818226337573, -0.4094945656492845, -0.053333212069082175, 0.20561690486881168, -0.1158832891633697, 0.20774177123175655, -0.08867649236526996], [0.018501690370867165, -0.3778939496751221, 0.020941235834672518, -0.6274121578212625, -0.05072470573114176, -0.41238674891226274, 0.4691594811340003, 0.19143355910625087, 0.1378637763545401, 0.47708805138259064, -0.23628323795169676, 0.5450804034380466, 0.2412884721303824, -0.06257886738248153, 0.23545039530257966, -0.1968588291736632], [-0.16990109754071328, -0.1444682483160015, -0.13244739859525662, -0.30165976279711587, 0.27693668026297585, -0.06975635718615923, 0.013488715915508613, -0.14132963679828933, -0.4550741264960096, 0.1260517158928813, -0.4788695544783573, -0.03976140592298572, -0.273503756275346, 0.49106401129122607, 0.2260471056811311, -0.07167011155951003], [0.36283308481514537, -0.17358807758872533, 0.1363276584825155, 0.04786558937646593, 0.09933847027027566, 0.2921836810945234, 0.24210874330930277, 0.05473564176050303, -0.42892283742466764, -0.264787834909511, -0.033876203929819784, -0.07906300855350502, -0.2926827187268019, 0.5977994323404421, 0.39572546552077575, 0.28036564910416006], [0.03698257989646616, -0.06337989137739415, -0.23661100239939323, -0.010620653858773681, 0.12259811792299781, -0.36716571280632576, 0.10641251381982271, -0.0927342972693423, -0.46661924259649595, -0.3693713777212833, -0.15447491967570537, 0.47640414076591464, 0.24465972817920262, -0.34626574807221494, 0.07025608836470126, -0.26019470972251946], [0.283423782552418, -0.042167976012945294, -0.024006361599513838, 0.43353250175399527, -0.34794309890642805, -0.3508968956711503, -0.07288117676507022, 0.2418601572720482, -0.39879451044876485, -0.8030775666783143, -0.11905455604628543, 0.1641977889897532, 0.26695417349886275, -0.11765675956602843, -0.06370100636601168, 0.2767671291227548], [-0.45006427928699244, -0.11946962966084294, 0.0471681325157642, 0.09627773104743724, -0.14300068687504472, 0.004010744988185516, -0.66362926498478, -0.16151964385002104, 0.10644131713418349, -0.2007367746537598, 0.006347647753788041, 0.13040993125532294, -0.053005413543132214, 0.037508835778179275, -0.24255955056694706, -0.10092704031309116], [0.16342085232523124, 0.11820294961471543, -0.14571851326540478, -0.03398016872144416, 0.19071170974309956, -0.5160273291276157, 0.21423993717336987, -0.11628319935736066, 0.11164063965563834, 0.26276541632701045, -0.3419279471319824, -0.16433658945807958, 0.05846129007209922, -0.20160095291213673, 0.46121004345152977, -0.20774353682840027], [-0.1797588784141729, 0.0464564242649993, -0.30029660412965314, -0.038586607578210495, 0.08706468650090263, -0.09071096358442077, 0.03376521685880678, -0.1542853962369963, -0.36248493950966604, 0.17379211780337736, 0.39809612816693357, -0.026855569297966005, 0.07218696917355676, 0.16255393041439742, -0.3126659040566114, 0.40887565006999754], [0.07364467507087893, 0.6040505904508551, -0.18329072521889284, 0.4716454820471044, 0.2330380129557987, 0.08446949048830911, 0.08387616462279689, -0.10063292512395493, 0.27519125664050875, -0.12141550447296799, -0.5321129394135993, -0.22770203566895553, 0.1213807670244882, 0.05695479393476168, -0.012070990919456969, 0.33160552862809756], [-0.4505481124787788, 0.04973789267609294, -0.4535425921670483, 0.18889337788169971, -0.033254941381498204, 0.10398183585401387, -0.2298280874165923, 0.31711576054232377, 0.2438299983815913, 0.15968551796993205, -0.032189790176622365, 0.137323614479456, -0.15582369646014388, 0.21152894320385654, 0.4246353130830944, 0.24408929413664177], [-0.34331740974949443, -0.055850251375826575, -0.3208048179752084, -0.02034953905273255, 0.23367073813393427, -0.4680495852843314, -0.34257903678311746, -0.06951349611880141, -0.03777637316180021, -0.22996255898657478, 0.09905298694529224, 0.07536238205491026, 0.030862572480321506, -0.1885874913556477, 0.1884628682354745, 0.5341731274053685], [-0.10353842935628643, -0.06275160873474449, 0.12261413014229108, -0.12200714010446789, 0.00359613036089125, 0.17956584837201459, -0.49687269513515653, 0.32334598252159047, 0.019203399189105935, -0.17191619769312802, -0.021871809139033662, -0.05412359751369601, -0.3886648644063409, 0.36739165641038074, 0.001945861374245273, 0.12012279788453152], [0.20956583237085097, -0.23251248175852757, 0.11830885881883604, -0.13328251809565125, 0.21594453224892327, -0.5392416097466294, -0.07371310323781556, -0.16539888291862273, 0.1246400679504741, 0.03351601039225893, -0.20168520241680218, -0.2545306743816676, 0.04774533078875649, -0.23053562000198555, 0.19064755003854267, -0.09327397057069345], [-0.7677075892282774, -0.046267446454095716, -0.2589703138807707, -0.3009495301586856, -0.22773587739532483, 0.015174324163198968, 0.4020774177075854, 0.023329099482542776, -0.12280886242884756, 0.10521504621643615, -0.1377193905899405, -0.2794538570375171, -0.26250930662805, -0.4408984214807613, -0.09279483135740461, 0.09553339131813482], [-0.014485760660987843, -0.10434860467172043, -0.23602124689690857, 0.24688832296645846, -0.36526198795072956, 0.18980347646014448, -0.11779768803735263, -0.20227189545085072, -0.3576015500981619, -0.25735323941323496, 0.24281979639186735, 0.06948554226662791, 0.18284917907114454, 0.12920976090206576, -0.27837144526783886, -0.03037430394782456], [-0.23925403774029658, 0.3160455733727221, -0.29782802113187345, 0.17807395314072638, 0.2535265715355923, 0.4568418963517255, -0.0939624106651679, 0.17795615206010387, 0.5861891185514342, -0.09485840234333558, -0.3859757758911825, -0.5001951038440348, 0.17244026192234208, -0.46963037063590285, -0.10016713136281576, 0.17031644604459656], [0.08018933407215656, 0.19621099138208173, 0.05438561678766087, 0.45249154349840764, -0.26241121512346344, -0.16741928964320052, -0.1358531674010404, 0.1992762665823915, 0.19867832362919763, 0.10494546997024835, 0.2895140642527888, -0.21364466448522101, 0.39349039929464535, 0.3775055497302952, 0.21214968842708196, 0.39276703807927055], [-0.4299145393957623, -0.10359607859881104, -0.18242120385642407, 0.059658083076004086, -0.24418039874053235, 0.15633258041086065, 0.30521025809882624, 0.17373596010911213, 0.04728495725456122, -0.29412361145085597, -0.21342518615430806, 0.38965018304980803, 0.31672991921345206, -0.022372000550588, -0.14678213103714077, -0.3806595142763453], [-0.26718891494277563, 0.4761549563881997, -0.31932243461100507, 0.048063686980583185, 0.2515803266057366, -0.3128474545946783, 0.04693276985356733, 0.23384632985217155, 0.0032961254154748234, 0.7154976442088752, -0.415981435678123, 0.26261263121664036, -0.04471967555816273, 0.1926212094433653, 0.11007323822383253, -0.1823922685607464], [0.07024411685425093, -0.4483581015659716, 0.15050741920806865, 0.046091376254140115, 0.17195006702434001, 0.24058425107910802, 0.12073470432740664, 0.02603472009710466, -0.2077976551284983, -0.23369784961947607, 0.26738555203287784, 0.3017994016112305, -0.028609600627670304, 0.005155979895711216, -0.26150314203774855, 0.3008249956561182], [0.1759341074301298, 0.41656980466341154, -0.21937392775388526, -0.08112982247158398, 0.11998045777131532, 0.13710472735240795, -0.04611160448714638, -0.2415541628615335, 0.22958251542939914, 0.175847319423685, -0.2463416573669516, 0.3441389470083307, 0.3259404310008953, 0.028183045321011804, 0.03373833289627569, 0.11212586288742217], [-0.17410709681337133, 0.04375896275919109, -0.5371746052454199, 0.21851761935668743, -0.38369730880872105, 0.34390501209259505, -0.09683598028921063, -0.07832346421133442, -0.1533429540032275, -0.09158221879116255, 0.2943707713648773, -0.6491892272630014, 0.36976061066275434, 0.07028662470998455, -0.3251231396742913, -0.2930025809945819], [0.3957281701760462, -0.1715035180112583, -0.28773759809077065, 0.2614414360501483, 0.107395607426943, -0.24508792277565963, 0.013060655225724499, -0.2903763243597312, 0.31638178022064833, 0.2621636845698237, 0.10971579649123754, 0.09444024287084213, 0.5633398805183464, -0.009317160168256363, -0.29152860308826894, 0.0659423749768485], [0.5459978727483397, -0.14989293798660278, -0.08942990175877197, 0.08246728501054164, 0.021997083498887036, -0.2641814145327331, 0.27354668670305693, 0.5457059300524412, 0.039155549271079296, -0.22380360869774313, -0.40545975760639, -0.007403869030760912, 0.31973353884003025, 0.10976991033569337, 0.030096911233707634, -0.041856915062514925]], [[-0.3258003698320882, 0.2964099443272751, 0.592954610933343], [-0.4162206803102952, 0.560566121948901, 0.542367714426744], [0.4932312248790475, -0.47547576957845905, -0.4786657020992983], [-0.19850103977195552, 0.1871186262260086, 0.4395458667906395], [0.2916625848338369, -0.08531260986862643, -0.4435747489420985], [0.4274881163269974, -0.3451555887953419, 0.570505896951941], [0.319368269843017, 0.7223686258231201, 0.35363164499973315], [-0.09185713293158793, -0.17616960003754722, -0.05870206391616729], [0.17760954774734686, 0.02743688486817611, -0.21932869472251823], [0.014941346760520318, 0.09668368348481288, -1.0999618537025617], [0.16405774691951733, -0.3516792717257113, -0.37503625049648526], [-0.916485521710069, -0.6164928395010473, -0.4339222592876903], [-0.2369364921504135, 0.8699096755119685, -0.16665109133477973], [0.03728762213939165, 0.13640426862200247, 0.021780457043724194], [-0.03282965017432795, -0.4198226090787851, 0.5607602924542138], [0.61617360130278, -0.5111352287895541, -0.2929417389300424]]], "enc_biases": [[-0.12778915464878082, 0.043180178850889206, 0.00497181061655283, -0.048973336815834045, 0.06989164650440216, -0.036269959062337875, 0.0442793034017086, 0.06958766281604767, 0.011420669965445995, 0.11711923032999039, 0.025298289954662323, -0.1258595734834671, -0.08403555303812027, -0.023402217775583267, -0.0058690342120826244, -0.03569859638810158, -0.19124986231327057, -0.04819045960903168, 0.17029394209384918, -0.03749746456742287, -0.053361859172582626, -0.03498828783631325, 0.003611769527196884, 0.055963821709156036, -0.0016418484738096595, 0.0203381534665823, -0.10930996388196945, 0.011855792254209518, -0.07074861973524094, -0.0027595553547143936, 9.319123637396842e-05, -0.020492486655712128, 0.04454885423183441, 0.2363244593143463, 0.07925425469875336, -0.0004295393591746688, 0.13356897234916687, -0.040976911783218384, 0.1712442934513092, -0.08406796306371689, -0.07949855178594589, -0.04049919173121452, 0.19231723248958588, 0.0002852728357538581, -0.02778925932943821, -0.008181419223546982, -0.017813121899962425, -0.04874219000339508, 0.037469834089279175, -0.15951284766197205, 0.01331945788115263, 0.13463972508907318, 0.1885436773300171, -0.0994652509689331, -0.018602155148983, 0.20241865515708923, -0.09616170078516006, 0.015217232517898083, 0.11941615492105484, -0.010836525820195675, -0.014349265024065971, -0.005407965276390314, -0.0031636287458240986, 0.0012979023158550262], [0.19497790932655334, -0.10893181711435318, -0.03621697425842285, -0.00822365004569292, 0.06993144005537033, -0.03780267760157585, -0.012700160034000874, -0.09688149392604828, 0.29731491208076477, -0.007924314588308334, -0.15467090904712677, 0.05859187990427017, -0.18100666999816895, 0.0021641321945935488, 0.04630575701594353, 0.06168936565518379, -0.10033389925956726, 0.04751138761639595, -0.09255796670913696, -0.11527372896671295, -0.012337536551058292, 0.07113861292600632, 0.04324498027563095, -0.02604793570935726, 0.014680027961730957, 0.12694092094898224, 0.0026939939707517624, 0.06509660929441452, 0.07913908362388611, -0.10606461763381958, 0.16486123204231262, -0.004853427410125732], [-0.09225870668888092, -0.10504603385925293, -0.0003326533187646419, -0.009068856947124004, -0.01194092445075512, -0.028108833357691765, 0.10009771585464478, -0.011038389056921005, 0.014433938078582287, 0.2807062864303589, -0.021742744371294975, 0.20881961286067963, 0.15431532263755798, -0.012393723241984844, -0.048878200352191925, 0.013861765153706074], [-0.07343421876430511, 0.13382990658283234, -0.13849149644374847]], "dec_weights": [[[-0.16874681869309424, -0.9778079818128562, 0.3902439069777032, -0.5936727321509454, 1.8198618107717295, 1.041304314175751, 0.344867360852639, 0.8515009256060039, 0.9345821484011595, -0.5873685566560578, -1.1713873417678011, 0.05047102753835016, 0.7094404043863852, 0.11333435068894314, -1.2225703759987472, -0.7026241561060795], [0.08841345716706024, 0.08306385393551848, 1.7459041171500245, -1.1266469871117428, 0.4577748543420958, 1.1731686236922159, 1.7963022990650162, -0.3720817383549444, 0.4689097132889005, 0.5052202755659917, 0.1637997483406229, -0.10974849401556018, 0.3376695799754509, -2.0630464881929567, 0.7914565876220112, 0.33744345041477386], [-0.253813040836888, 1.9085866818102057, -0.5312102072741368, -0.3265857114832125, 1.9397462393155562, -0.8901808549227688, -0.7323319278927785, -0.14357275757901425, 0.6210513621801549, 0.5449603824613699, -1.0517896823582173, -0.49622792597316234, -0.7486128990190629, -0.06231676922483815, 0.3119229906586038, 0.5725788630778721]], [[-0.623110569083834, 0.375260408425291, 0.08609852647043435, 0.4949866392448282, 0.17304410746025362, 0.3730843693833706, 0.16438618085655032, 0.4922235699059924, 0.19429995499335234, -0.034874483889117715, 0.7959449180922868, 0.324795233471731, 0.17971109111976172, -0.4287056143120823, -0.4616631402251441, 0.09402837880234792, 0.04542219023050392, -0.21685154246175248, 0.05027765587318725, 0.5834629043639061, 0.2951452633579549, -0.4033632048017517, -0.014734430237192677, -0.2565816692437738, -0.12620086731412766, -0.14567022408901342, -0.14129517649318502, -0.44512878965064845, -0.031133465707191128, -0.22432491500665444, -1.0398004056859838, 0.7242834355495205], [0.5369837661616572, -0.13173796036916877, -0.01688817555495639, -0.5937455571942982, 0.8322107220560204, 0.8213067098592732, 0.04370019520871783, 0.25843496350327566, -0.04892182115363448, -0.47206315644994257, -0.14533184676567784, 0.17198806010802672, -0.2167656593974245, -0.20321222071938616, 0.0636356957877939, 0.06803832372128506, 0.292181750010382, -0.37351232510102467, -0.3805427768050785, -0.555506509748238, 0.29891133147910615, -0.7352166266663468, 0.3918564150337941, 0.38591023205743197, -0.10127699065518918, -0.9183955256962911, -0.11148063165838552, -0.06895013260313981, -0.3107281837647026, -0.15646292729680608, 0.7234977169413234, 0.2361910220080544], [-0.2500518693071203, -0.5546895385896761, -0.1631184005435621, 0.05590614686325004, 0.17343075810848826, -0.2742583359935366, 0.1376007286161933, 0.8256287282707706, 0.4257928345198875, -0.018088594779923046, -0.10586216046116315, 0.00862858286255846, 0.4562692902990596, -0.19244455200312335, 0.06453227684691476, 0.1094078363863502, -0.08533378172154166, -0.48858772138212175, 0.14060251258283885, 0.08574365080459438, 0.2504961853626995, -0.21189161693080888, 0.40189158521907387, -0.27176540960672985, 0.7200017941505295, -0.616312817414401, 0.17605343123060602, 0.2358937293280898, -0.19084486727469746, 0.17787263077142948, 0.4255831776461226, -0.7818174790278474], [0.17637970061597927, -0.8794067122742927, -0.34017110970008313, 0.5743308480978159, -0.20574621316883906, -0.4140010967175541, -0.06950687933601227, 0.7283862769946874, -0.64635148223735, -0.37076472449889447, 0.5273377784528315, 0.6546002639426678, -0.03798826110173569, -0.4374951263743139, 0.7382638583654084, 0.5620506230961283, 0.2378790564204028, -0.28656303907138303, -0.017790329747430753, -0.05716960157899188, 0.11632024311191312, 0.5109307661797498, 0.3111421605494497, -0.3784766892664626, 0.48484559577929576, 0.11043708780787914, 0.24251052232455206, 0.5174989080156996, -0.392838926027451, -0.016039334917340473, -0.1880090193850245, -0.5529366174050928], [0.26860527612947294, 0.9025702918465467, -0.6563530345911809, 0.05811119481949641, 0.3929288497521954, 0.15442493683997502, -0.10678986863315644, -0.5551508728509785, 0.08983591448742942, -0.2673877562456281, -0.770579143922177, 0.40924700377114515, 0.5385618253071911, 0.04056438258727388, 0.22221970161821336, 0.49832828310712757, 0.2898714700926206, 0.314404460927488, -0.13752697863421895, 0.4104683880697626, -0.06648039136197621, 0.059154222764655914, -0.5348677660909255, 0.06419955811772393, -0.2612224202686897, -0.22632229125984904, -0.39075666444707585, -0.4177561626533373, 0.7881578642564354, 0.7087525606533375, 0.8075325467729823, -0.43155844419547523], [0.03148586261635666, -0.44664271844138836, -0.2515151990500528, -0.1719557405269649, 0.25015610762666324, -0.24098444222626803, 0.3375304247778067, 0.278396059551781, 1.0426345869129898, -0.5215624539347191, 0.40117492950595, 0.491987774357393, -0.30342593016180386, 0.3525394318803517, 0.10360992821055612, -0.03666737417634851, -0.30794627010075915, -0.2589983498850516, 0.7194419707658513, 0.12033473843068263, 0.32859988516044747, -0.30570858226677244, -0.35371135195237724, 0.4329917765201547, -0.42700700823168103, -0.14556215720769206, -0.03244735979198647, 0.10317016413670972, -0.04404683685397188, 0.22589793597719557, 0.14675022102228577, 0.2592321815786709], [-0.2768754529767245, -0.09053393977388674, 0.36504886632134853, 0.4428319561977748, -0.4736798619593263, 0.03637355389460318, -0.7395468760854466, 0.17308271596480307, 0.7990331403181591, -0.3355335002046056, -0.3360209367005973, 0.40225561915614955, -0.5079866723205991, -0.188571794011683, 0.2664721463350253, -0.12737145180952225, 0.022104066441413033, 0.2577071377485342, 0.16810945143478837, 0.2028202208659439, -0.028893271722691988, 0.1084495537147158, -0.05372304041250211, 0.20994727074670408, -0.060245737742540446, -0.06447139269807334, -0.30340924319113133, 0.05091920333127144, -0.19501544237044938, -0.3750836526997692, 0.04711313566413405, 0.07524263583132948], [0.27472344834361273, -0.14807864201811594, 0.14474517369293402, 0.20501795029921946, 0.04485386599238858, -0.28886458155538625, 0.04379617054928782, 0.0998629574953277, 0.032689806101236125, -0.7353462095539389, 0.04836678153451208, 0.8200105667260392, -0.16119386524627835, -0.2907083026618625, 0.1260407439166642, 0.08035772320685618, 0.4137798444777272, -0.4453546730470668, 0.24930447517840082, 0.2463065056717674, -0.03488783638796835, 0.11013100858913341, 0.36163177232196525, 0.2829065719002156, -0.41799214790835354, 0.2898124475204414, -0.02365963491810072, 0.020389191348859678, -0.0034511455139904943, -0.010583858649180081, 0.4306877795644812, -0.029339970748704727], [-0.33240897449144197, -0.13128960301893813, 0.054900211002645354, 0.46499597723416747, 0.23825171549431748, -0.26997391603709464, 0.8420067265924566, 0.11867156588849687, 0.4609728037526022, -0.053630202099111, 0.18215376886708884, 0.334199438913579, 0.51530054639782, 0.34836365142927117, 0.36676614662103296, -0.04448391220743522, -0.10452398488549479, 0.11465257691507626, 0.33433171191541405, -0.11297566073616311, 0.2752498892016483, 0.5039218632558552, -0.36360431997131865, -0.3475792060490345, 0.008949230222087589, 0.10774310280485325, -0.2563810809650624, 0.506371866325061, 0.1736633998221776, 0.13233611647720536, -0.45290550078075265, -0.4642607663981682], [0.1718099219026817, -0.7507984639458669, 0.3313174288254964, -0.06562551533376676, 1.3583706586146358, 0.8336922902547699, -0.06896724151453092, 0.016901764785313942, 0.2944251571139448, 0.5993544380542954, -0.5778119413664768, -0.5842123197329121, -0.21350314225759104, 0.24594424108829718, 0.23885844115909036, 0.4325769506455474, -0.3008852706584902, -0.8167246008588069, 0.3078599466055847, -0.3092261028528894, -0.7067107655804318, 0.055012848659013965, 0.3208069967291377, -0.03849987419570358, -0.10050645462319296, -0.05707062808153512, -0.07000753066173379, -0.4850758610221728, -0.1856729667173585, 0.12831850793779767, 0.14440496449382287, 0.05933624572136873], [-0.33463187256346316, -0.06330140931270749, -0.7742053822404568, 0.11763710119891103, 0.5161548574228848, -0.5278205621658518, -0.20770525138841744, 0.09238685625229737, 0.5502595104718626, -0.15879860991221087, -0.26015936263138556, -0.7217021295744688, 0.02199015226512184, 0.8158866897454023, 0.010462397700929507, -0.06345649877767107, 0.07569271216216661, -0.005563428001966489, -0.32946911745221485, 0.3641667926125784, 0.2329405670085897, 0.005516780062333656, -0.2675591496800327, 0.6410252996668048, 0.2549813522900664, -0.19422719543184797, 0.4699512821289283, -0.23420735354507638, -0.27790239112791076, -0.3718415070962065, -0.7343239043858903, 0.16795266445553975], [-0.6457475955077702, -0.43311098193493786, -0.7313508085222435, -0.024867320492321238, -0.08168858799915905, -0.11533632907733264, -0.3680027180533346, -0.45381589785011583, 0.209999897483886, -0.19393788794601644, 0.10320278113206045, -0.31412250789652135, 0.05611268245203349, 0.45886770148363104, 0.19510832826447613, -0.149411016629166, 0.08481870132214143, -0.08532824801975838, -0.03565847368945908, -0.10515111424594623, -0.03293358561336243, 0.07362490834431663, -0.356911577902186, -0.33543651633573396, -0.5130345125862199, -0.5641244848058506, -0.43664271974984276, 0.04329878525023779, -0.3166532446669626, 0.18903898095794824, -0.007887799925049939, -0.6939028695841307], [0.2274620438610449, 0.2911931179828906, -0.34914025292315765, 0.21797179950795798, -0.4675779167080471, -0.010297687567220049, -0.4635054190207221, -0.6564777815884251, 0.02690727457242426, -0.04310393413835102, -0.1645507250752755, -0.36573104018153235, -0.14626674087922603, 0.05872240746827681, -0.02875704814690018, 0.07479141705676205, -0.27933893130268805, 0.41018510463143165, -0.4378316447970426, 0.24375803544254987, 0.45486801595671994, 0.15370217955732948, -0.14243321456139857, -0.17398546821347086, 0.3424008307651213, -0.5008811099793846, -0.3822822143870388, -0.12105731678497134, 0.4156672762819416, 0.1898994929531109, -0.4121183523748623, -0.10910464952420429], [-0.21814545865976195, -0.2502627220967397, 0.3461388775517283, -0.48435071696414167, 0.5654696679677973, 0.29242091397386544, 0.38523942706134684, -0.16541965202658193, -0.05429835765676833, -0.5054141828849984, -0.1867086118224572, 0.1731615111646457, 0.45471710174322844, -0.39187806321145474, -0.13036438852379206, -0.052558167350533154, -0.49470311608426004, 0.20821937885004385, -0.25634514203773884, -0.07063029798695071, -0.16201358506201832, -0.28021720531299393, -0.0019898179111887465, -0.07435767550938915, -0.13261767777907726, -0.25691829488759954, 0.11177141848033481, 0.5843228154828397, 0.04727227449315451, 0.3446964162121657, -0.4908027947010096, 0.05565877459388417], [-0.3017154842317142, -0.5196268541883863, -0.30623141050868175, 0.3611029952934225, 0.5722396182882323, 0.11655394110568666, -0.5407670118029272, 0.004422342225842199, -0.023448376455297553, 0.06016315580703595, -0.650801381743075, -0.22575992686367932, -0.08764193247942012, 0.20915730697063964, -0.6888704762144424, -0.03417543642320353, 0.21312622896588881, 0.29969214451104265, 0.2628609628888065, 0.22437855582290642, -0.19815455529324624, -0.6716138784628889, -0.017651092708866643, 0.34634754951020025, 0.5691921990906073, 0.2500941815365771, 0.2876072425563721, 0.10939543531140788, -0.11996529586447097, -0.15144847100716535, 0.6751789901848192, -0.33178410871599245], [0.6485457292961025, -0.11418091793751489, 0.44673133692786743, -0.524614949756507, 0.4039401906921201, -0.2288313840453497, -0.5022479509736281, 0.10407506397724395, 0.29043324442983653, -0.2991727223575865, -0.5289580045482669, 0.02306314330263867, -0.03737755681552853, 0.22359996199928742, 0.39066135795232965, 0.010352572240181393, 0.7762388396775696, 0.07960514263101802, -0.1175539474664611, -0.5802296080655572, -0.08119051402146232, -0.11663059994574664, 0.3867123705047812, 0.1408674850411161, -0.3674197683178716, 0.06007828570350453, 0.299448319004508, 0.5225624736615486, 0.3784556059175219, 0.2074305179331844, 0.0789633679144888, 0.13704854210145534]], [[0.3121938548238189, -0.33305713309120605, -0.08719568141271432, -0.1926680971159261, 0.11295959016954514, 0.3047046758171313, -0.14950924979920957, -0.6048677667331799, -0.0989949801028014, 0.22780704689099615, 0.13399431720516863, 0.10696021241804018, -0.04758205110753053, -0.31914461488929713, 0.1383063947831504, -0.2072668209113142, 0.57441817868731, 0.14237532234624656, -0.1515832183760004, -0.15174436113332074, -0.022887128680270322, -0.05559820503116549, 0.26283948914435323, 0.05180141610501312, -0.17210644385533228, 0.4801021737184143, 0.014046330845420856, 0.19126316554242612, -0.15133599600744685, 0.11449331542541893, 0.07742440788447714, -0.5106384143491577, 0.5024429859603938, 0.32176660178098343, -0.07776030006645739, -0.27487871672812264, 0.05403088058275306, 0.02165966984906251, 0.08848831249617155, 0.017345667952614868, 0.1253901824733627, 0.39130614637311595, 0.14160182290590798, -0.2618112326874122, 0.33432003960277434, 0.40909851375784734, 0.8075735515997623, -0.2533948578363129, 0.06034557588042906, -0.5148356602995845, 0.13803583978686482, -0.13664901527737183, 0.47801534125074957, -0.19325002881968473, -0.4215274557284678, -0.13723324581101712, -0.49257595209951743, 0.1792522521231575, -0.5214337354629491, -0.024144515744375174, -0.5180193701654451, -0.07987838882839852, 0.4003956383655955, 0.07747427060842306], [-0.21492160037987632, -0.019641723973435565, 0.004648919617993436, 0.11785355062420569, -0.32608486971548234, 0.1542281175930825, -0.6744517018724622, -0.15793313962193228, -0.12164695578265507, 0.1579544080858932, 0.005621819940884933, -0.34950104978804697, -0.24602772182320826, 0.047595690778662665, -0.020980763584412542, -0.14405848769329946, -0.11855376999307024, 0.17334793288975023, -0.12453812345963092, -0.021232372269272985, 0.5437226506155802, -0.3567411546944855, -0.46276979666661466, 0.1922589258592717, -0.16886701735720522, -0.07310715691942643, -0.19763720863413098, -0.06251398086585122, 0.3988023267508656, 0.21011150364739428, 0.21514150868269283, -0.351566333454884, -0.2870486087321092, -0.707909061821531, -0.19665504014367746, 0.23856730931438047, 0.11301383205357089, -0.05523111063949284, -0.013319941379852988, -0.1882203361181226, 0.04650926823857482, 0.20142761317439167, -0.40375544027030175, 0.07481303488947516, 0.23150461924762672, -0.10346222875106893, 0.16466026074444468, 0.7112015013222862, -0.02588813513328808, 0.10193505804850514, -0.18406824052545853, 0.04527351788555012, 0.1185915752469008, 0.048476849276767715, -0.2571573932484539, 0.04281060569048761, 0.3652674276481386, 0.11623979234336447, 0.22728832105821667, -0.061137674026753124, 0.18758691082464654, 0.06977013592328264, -0.236912325090529, 0.06365263476285768], [-0.24701630558435153, -0.16363842874797305, 0.04718842959245002, 0.07417637756783552, -0.29127748388376495, 0.24981273821007313, 0.14153345964568653, -0.16723566738098325, -0.3823054213600342, -0.03625565051534653, -0.11109892202141097, 0.02815263303766633, -0.0909859579320994, -0.5015046027496304, -0.1010188135914214, -0.07641888258254738, 0.15646862550682572, -0.17408045974763325, 0.4057265033284587, -0.47615446569923436, 0.3269387274720493, -0.05587583782813512, 0.23031302560274106, 0.011731992904614257, 0.28792692894784516, -0.09479049959788964, -0.27415656429048985, 0.35371737058411756, -0.02834473760586015, 0.058476026999868265, 0.3077977833357828, -0.23774761155001575, 0.14854857166466715, -0.14703707825514123, -0.04169882015711683, 0.018012764458498944, -0.3700471562825815, -0.19416944537481642, 0.3368346182465019, 0.2151636014629155, -0.016395586028435122, 0.06474321565092496, -0.07314044606895564, 0.33849019379826345, -0.03187477621148603, 0.05783733645775964, 0.2958639268226586, -0.19754542950870016, 0.38865669649188617, -0.38448319642935036, 0.40637979554176684, -0.09319075421659606, -0.06997787444154274, -0.4713985774357871, -0.113126904561969, -0.24902905997195532, -0.15059986287469124, -0.034776691569193385, 0.24321111878812152, 0.06731634920908648, 0.07645968124059525, -0.2731368040910939, -0.22061713990834386, 0.44677059142900044], [-0.20243237717180382, 0.46329016064106443, -0.060591302295192134, 0.000721518608224284, 0.24484295375137116, 0.35304204976454956, 0.019799025743206175, -0.07638740517190434, -0.020439086614570886, 0.08453719143776714, 0.2222137373851269, 0.007971015049521817, 0.13692428635247586, 0.42358094308843514, 0.09676958650366832, 0.03442690622696168, -0.39067474740993674, -0.6556916217452728, 0.11234807754842974, -0.05745725293548882, -0.12666758975494596, 0.12667058295477754, -0.05038311923265185, 0.31541030674922776, 0.000853662163697142, -0.2640059496862054, 0.257985993249781, -0.019476787437070327, 0.12634467431268115, -0.21939179844376158, -0.16195512539470508, 0.007132030429976403, 0.002910199674364425, 0.11968875841473019, -0.12923765223265488, -0.45792082011905366, -0.06441046496781584, 0.19866008821668388, -0.06723413266848355, -0.011294640267806359, 0.31173762536714045, -0.2419780623162455, -0.39499325339274877, -0.0402275988672658, -0.09000071198348701, -0.24095535874210575, 0.012771058777635621, 0.110492277130209, -0.002578327610949462, 0.08968909302623142, 0.45268201233548666, -0.08536660448894784, 0.08760347446218684, -0.12693019096606264, -0.2231739649324766, -0.14186118326926847, -0.1250465862982739, 0.08230705506554661, 0.5977395947172572, -0.1389901764675822, -0.11581507747095869, -0.01588504129626242, 0.09591763107910412, 0.11895730994291452], [0.2852868050368764, -0.5473838261498312, -0.5951287921965903, -0.12175797926282514, 0.2665054380122535, -0.5161373972799755, -0.874463201738542, 0.27058077728958074, 0.12762698716477908, -0.2717851615111159, -0.24438957228569616, -0.25373088279059847, 0.07298084323061532, -0.3073208638684823, 0.1931126434997396, -0.8728590272271763, -0.15797171626452156, -0.2810038568189338, -0.06985089181439365, -0.16932309572093815, 0.20798616279252424, -0.32929603871124014, 0.09919192415571214, 0.07341015918563656, 0.4160143608626947, -0.038401949232537994, 0.06570616581405067, -0.6773046255564329, -0.5973468455808304, 0.32159900832434946, -0.00083495301481427, 0.30049224050855355, -0.3423020205849036, 0.1298358902743842, 0.6607024775977894, 0.10552914849838022, 0.1107476794066632, 0.0023374150657617574, -0.574660437685649, 0.29352629313029016, -0.23690460565701485, 0.331887864942917, -0.40097717578215286, -0.2930860014285432, 0.31541636214339314, -0.08783381653948534, 0.27848995786415376, -0.03342838367219802, -0.4590910469593771, 0.17892583379780264, -0.14702846329827748, 0.1732478972541375, -0.12422532584002977, -0.38562700455604726, 0.030654946027933876, 0.6105507172142719, 0.11400217783585, 0.059055351289736484, 0.2945681002530659, 0.0751439823885194, 0.01742375233530469, -0.27129511499455, 0.010105341461554453, 0.29809509488759695], [-0.20818240944242228, 0.2971210670488199, -0.0229482248772541, -0.22077181332868479, 0.2660290521340411, -0.15820388967945673, 0.18849650237690888, -0.05342122957892591, 0.000305597633288159, 0.12248425197583913, 0.07355190789167472, -0.49774267823801577, -0.23018535424707073, 0.1849054341663122, 0.020783505995568094, -0.11885960430232755, -0.30420482740053034, -0.2699531828190729, -0.546231221702668, -0.025745103537297608, -0.1470345938572501, -0.20693566861336427, 0.14511372066197725, 0.002440209063488852, 0.5233946930491297, -0.2722335228155628, 0.28100500965591824, 0.23923354418795256, -0.19399939952947193, 0.19316350621097014, -0.1140777540828882, -0.02344364357290175, 0.37658294036774925, 0.15087900181747263, 0.2834181554821409, -0.10674416478672585, -0.42069479845075597, -0.05345106740169381, 0.28661204076304586, -0.5570941608380667, -0.3192921988432562, 0.17211342002368163, -0.24543919519643645, -0.19715347559867594, -0.11623048174037202, -0.34062932450342265, -0.21959347088341025, 0.2516286426673907, -0.325434148859582, -0.42764923528401877, -0.157579372957706, 0.181896760226466, -0.09215674374952505, -0.11618038181871876, 0.00963873413809506, -0.40695963231552645, 0.12436926933785089, 0.13796155288854847, -0.12023014475441803, 0.25048253858786257, -0.2844130820495796, 0.28227343459200954, 0.01677544349825669, -0.19083643312982046], [-0.005129601521891784, -0.03178962893932025, 0.30439443762272667, -0.2682671736564636, -0.18397409601385126, 0.26304328771921187, -0.14841742946048722, 0.2242030052765006, 0.4237092326780159, -0.10002742685006985, 0.16994665130002595, -0.28747887419836343, 0.18471451890510734, 0.047750738829604775, 0.11714909299330493, -0.16045760727976213, -0.4142592963844141, 0.12536387945209423, -0.5136238811565033, -0.07940411763227422, 0.2357401748094612, 0.047007666519492605, 0.4834515961061604, 0.25604505279772555, -0.16730810725158227, 0.007462489492276365, -0.012534840042561142, -0.3910634700115326, -0.23445587138691734, -0.1370201144298662, -0.5075530023451482, 0.012668290052229225, -0.06212619320756066, -0.4171416814627845, 0.10138093959159752, 0.17853298397703374, 0.0529274816647726, -0.08065346428976941, 0.13951348156298402, 0.16472380851092247, 0.0730636424273619, -0.20395662882802346, 0.06728060082670462, 0.29819443146290875, -0.15022660755577064, 0.5229904742451312, -0.1354872516997484, 0.009725162733839518, -0.16763817506046533, 0.06053190353867569, -0.43445937418051217, -0.13613023399962645, -0.270192583068158, 0.033712524799337465, 0.24452155657807093, 0.15757824432399922, -0.5912950444621119, 0.5133106597835029, 0.06932495581258093, -0.19510862757092035, 0.03955702613575715, 0.04399666005953341, -0.1660635969132192, 0.04330096557376105], [-0.18801155940598654, -0.10395090769508133, -0.17088499087850959, -0.35696309935948983, 0.02948901063829048, 0.1671777396618607, 0.1404194883521228, 0.28053695517050764, 0.09286552128818028, -0.1328194840235347, 0.21003694378650023, -0.33765012544514905, -0.2894769797401942, -0.26015676327952786, 0.32128570684463176, 0.13738861722528775, 0.1024276918742648, 0.26632066795262416, -0.2096881876707131, 0.023294658257946, -0.030588049229808192, 0.3653195019541231, 0.022191329633406892, -0.1161083696016054, 0.06887576054511696, 0.14037082268883866, -0.13862539350709785, 0.006653290332526696, -0.27147505593327564, -0.6795115738471655, 0.050801011101674315, 0.17189120601431312, 0.06547980086411183, -0.4861403453349596, -0.09603296267521161, -0.553113617192622, 0.42942733714368414, -0.2709556856452172, 0.31752202570492505, 0.26055099987404606, -0.2416455345409616, -0.28579356209069984, 0.08164724865017266, -0.21020883579428729, 0.06061342147637528, -0.12026987546911141, -0.3706338311191854, -0.6111168458109122, 0.05706396039751292, -0.14673354277521086, -0.1380192098772901, 0.1737302723318746, 0.2608739591064718, -0.06778328609284714, -0.08837755244557036, 0.1488448346777011, -0.34253733157555427, 0.11426443278197873, 0.1196299469260579, 0.2884583220226247, -0.5073099847829908, -0.18985063537583405, -0.23423686445750602, 0.05336778812683918], [0.023563776517169586, 0.5229012005359693, -0.12318589436024709, -0.12310860393230638, 0.22311700770549991, 0.0369378976468105, 0.42518430887027453, 0.1806756384981775, -0.2962508674688473, -0.33200093795633095, -0.38627460677655867, 0.1820782628681429, 0.3019865474930255, 0.38257254717349026, 0.3152610024464801, 0.12819836464159412, -0.14705391059149292, -0.2883586572319278, 0.2707490947683775, -0.08810683341967601, 0.040563203378493756, 0.36864303623631434, 0.16254492827721342, 0.31648293793131355, 0.2702855842118334, 0.005769041475321515, 0.1997274805825517, 0.17798385750433404, -0.1324644627430887, -0.005857558763544259, -0.34684110280290725, 0.23050744422986522, -0.29843141491941855, 0.07166968517613291, -0.2485006060073654, 0.13878889504257055, 0.11495874590326093, -0.39708799223402613, 0.10366156599329103, -0.05551430935441726, 0.4190650267850963, -0.07796088890872413, 0.05863374574943739, -0.23944761282422183, -0.15012546184229655, -0.11495104040180851, 0.4219528095836424, 0.40796412811223026, -0.2005996299810738, 0.3136291064882737, -0.5403751733178068, -0.29723058633834687, -0.2905914418275143, -0.33758323256023537, -0.44165432329576293, 0.12723326890084644, -0.0798423232539112, 0.14498463914525114, 0.2208194371072922, 0.19172782108484362, 0.10061638101271177, -0.01693107307212845, -0.32582582882311545, 0.4328793979380084], [-0.1465595513357724, -0.23362649492242338, -0.044372118854093215, -0.22765762683337493, -0.10383866587240931, 0.08622964687729254, 0.08596514953550323, -0.22400312594205415, -0.12148733421175824, 0.26790582224724435, 0.12379654337535001, 0.5173673616311902, 0.2941102042852542, 0.285582178560103, -0.34666020633126576, 0.19046373689704657, -0.013436030743332779, -0.1374066177128416, 0.041035828306478804, 0.23663380840741358, 0.12480893238835174, -0.21985749042337896, 0.18446920888833998, -0.15877558382956852, 0.05374549846752398, -0.07574857226737038, -0.05386378014804968, 0.1901918912556854, -0.25934377189770996, 0.48536669909317814, -0.4541656169926415, -0.14854634943619882, 0.09232565499349527, 0.14571420918154945, -0.025376720476774427, -0.01432014233085475, 0.10274669675390141, -0.05761561444229497, 0.34710519906355963, 0.20969149129082, 0.2171404361917015, -0.2409476211579754, -0.019576651280630415, -0.07492279372235307, -0.2506588490588343, 0.08984287353961734, -0.13515105612599992, 0.16260073474860182, -0.26689691415549344, 0.4282684302866865, -0.22352998372255425, 0.05468344611973483, 0.19743212822756998, -0.1423004225828159, 0.21284986881195117, -0.3062952247092702, 